digraph Tree {
node [shape=box, style="filled", color="black", fontname="helvetica"] ;
edge [fontname="helvetica"] ;
0 [label="RM <= 6.945\nsquared_error = 83.1\nsamples = 379\nvalue = 22.604", fillcolor="#f5ceb2"] ;
1 [label="LSTAT <= 14.4\nsquared_error = 36.416\nsamples = 320\nvalue = 19.895", fillcolor="#f6d5bd"] ;
0 -> 1 [labeldistance=2.5, labelangle=45, headlabel="True"] ;
2 [label="DIS <= 1.422\nsquared_error = 22.563\nsamples = 192\nvalue = 23.065", fillcolor="#f5ccb0"] ;
1 -> 2 ;
3 [label="B <= 349.12\nsquared_error = 108.536\nsamples = 3\nvalue = 42.633", fillcolor="#e99659"] ;
2 -> 3 ;
4 [label="squared_error = 0.0\nsamples = 1\nvalue = 27.9", fillcolor="#f2bf9a"] ;
3 -> 4 ;
5 [label="squared_error = 0.0\nsamples = 2\nvalue = 50.0", fillcolor="#e58139"] ;
3 -> 5 ;
6 [label="RM <= 6.543\nsquared_error = 15.023\nsamples = 189\nvalue = 22.754", fillcolor="#f5cdb1"] ;
2 -> 6 ;
7 [label="LSTAT <= 7.57\nsquared_error = 8.659\nsamples = 148\nvalue = 21.553", fillcolor="#f5d1b6"] ;
6 -> 7 ;
8 [label="TAX <= 222.5\nsquared_error = 3.491\nsamples = 34\nvalue = 24.003", fillcolor="#f4caab"] ;
7 -> 8 ;
9 [label="squared_error = 0.0\nsamples = 1\nvalue = 28.7", fillcolor="#f1bd97"] ;
8 -> 9 ;
10 [label="DIS <= 4.485\nsquared_error = 2.908\nsamples = 33\nvalue = 23.861", fillcolor="#f4caac"] ;
8 -> 10 ;
11 [label="ZN <= 34.0\nsquared_error = 3.938\nsamples = 10\nvalue = 25.22", fillcolor="#f3c6a6"] ;
10 -> 11 ;
12 [label="B <= 359.505\nsquared_error = 2.517\nsamples = 9\nvalue = 24.789", fillcolor="#f4c8a8"] ;
11 -> 12 ;
13 [label="AGE <= 96.3\nsquared_error = 1.976\nsamples = 3\nvalue = 26.267", fillcolor="#f3c3a1"] ;
12 -> 13 ;
14 [label="INDUS <= 18.84\nsquared_error = 0.062\nsamples = 2\nvalue = 27.25", fillcolor="#f2c19d"] ;
13 -> 14 ;
15 [label="squared_error = 0.0\nsamples = 1\nvalue = 27.5", fillcolor="#f2c09c"] ;
14 -> 15 ;
16 [label="squared_error = 0.0\nsamples = 1\nvalue = 27.0", fillcolor="#f2c19e"] ;
14 -> 16 ;
17 [label="squared_error = -0.0\nsamples = 1\nvalue = 24.3", fillcolor="#f4c9aa"] ;
13 -> 17 ;
18 [label="CRIM <= 0.476\nsquared_error = 1.149\nsamples = 6\nvalue = 24.05", fillcolor="#f4caab"] ;
12 -> 18 ;
19 [label="RM <= 6.256\nsquared_error = 0.177\nsamples = 4\nvalue = 24.725", fillcolor="#f4c8a8"] ;
18 -> 19 ;
20 [label="PTRATIO <= 18.4\nsquared_error = 0.01\nsamples = 2\nvalue = 25.1", fillcolor="#f3c7a7"] ;
19 -> 20 ;
21 [label="squared_error = 0.0\nsamples = 1\nvalue = 25.0", fillcolor="#f3c7a7"] ;
20 -> 21 ;
22 [label="squared_error = -0.0\nsamples = 1\nvalue = 25.2", fillcolor="#f3c6a6"] ;
20 -> 22 ;
23 [label="B <= 395.26\nsquared_error = 0.063\nsamples = 2\nvalue = 24.35", fillcolor="#f4c9aa"] ;
19 -> 23 ;
24 [label="squared_error = 0.0\nsamples = 1\nvalue = 24.1", fillcolor="#f4caab"] ;
23 -> 24 ;
25 [label="squared_error = 0.0\nsamples = 1\nvalue = 24.6", fillcolor="#f4c8a9"] ;
23 -> 25 ;
26 [label="AGE <= 76.4\nsquared_error = 0.36\nsamples = 2\nvalue = 22.7", fillcolor="#f5cdb1"] ;
18 -> 26 ;
27 [label="squared_error = 0.0\nsamples = 1\nvalue = 22.1", fillcolor="#f5cfb4"] ;
26 -> 27 ;
28 [label="squared_error = -0.0\nsamples = 1\nvalue = 23.3", fillcolor="#f4ccae"] ;
26 -> 28 ;
29 [label="squared_error = -0.0\nsamples = 1\nvalue = 29.1", fillcolor="#f1bc95"] ;
11 -> 29 ;
30 [label="PTRATIO <= 19.95\nsquared_error = 1.307\nsamples = 23\nvalue = 23.27", fillcolor="#f4ccaf"] ;
10 -> 30 ;
31 [label="TAX <= 263.5\nsquared_error = 0.66\nsamples = 20\nvalue = 23.585", fillcolor="#f4cbad"] ;
30 -> 31 ;
32 [label="CRIM <= 0.106\nsquared_error = 0.022\nsamples = 2\nvalue = 24.85", fillcolor="#f4c7a8"] ;
31 -> 32 ;
33 [label="squared_error = 0.0\nsamples = 1\nvalue = 25.0", fillcolor="#f3c7a7"] ;
32 -> 33 ;
34 [label="squared_error = -0.0\nsamples = 1\nvalue = 24.7", fillcolor="#f4c8a8"] ;
32 -> 34 ;
35 [label="CRIM <= 0.322\nsquared_error = 0.534\nsamples = 18\nvalue = 23.444", fillcolor="#f4cbae"] ;
31 -> 35 ;
36 [label="LSTAT <= 4.13\nsquared_error = 0.414\nsamples = 17\nvalue = 23.353", fillcolor="#f4ccae"] ;
35 -> 36 ;
37 [label="squared_error = 0.0\nsamples = 1\nvalue = 24.8", fillcolor="#f4c8a8"] ;
36 -> 37 ;
38 [label="AGE <= 61.05\nsquared_error = 0.301\nsamples = 16\nvalue = 23.262", fillcolor="#f4ccaf"] ;
36 -> 38 ;
39 [label="TAX <= 354.5\nsquared_error = 0.241\nsamples = 15\nvalue = 23.333", fillcolor="#f4ccae"] ;
38 -> 39 ;
40 [label="B <= 387.205\nsquared_error = 0.169\nsamples = 13\nvalue = 23.454", fillcolor="#f4cbae"] ;
39 -> 40 ;
41 [label="B <= 381.57\nsquared_error = 0.082\nsamples = 4\nvalue = 23.75", fillcolor="#f4caac"] ;
40 -> 41 ;
42 [label="INDUS <= 7.87\nsquared_error = 0.02\nsamples = 3\nvalue = 23.6", fillcolor="#f4cbad"] ;
41 -> 42 ;
43 [label="squared_error = 0.0\nsamples = 2\nvalue = 23.7", fillcolor="#f4cbad"] ;
42 -> 43 ;
44 [label="squared_error = 0.0\nsamples = 1\nvalue = 23.4", fillcolor="#f4cbae"] ;
42 -> 44 ;
45 [label="squared_error = -0.0\nsamples = 1\nvalue = 24.2", fillcolor="#f4c9ab"] ;
41 -> 45 ;
46 [label="LSTAT <= 7.17\nsquared_error = 0.151\nsamples = 9\nvalue = 23.322", fillcolor="#f4ccae"] ;
40 -> 46 ;
47 [label="INDUS <= 6.35\nsquared_error = 0.042\nsamples = 7\nvalue = 23.143", fillcolor="#f5ccaf"] ;
46 -> 47 ;
48 [label="PTRATIO <= 16.35\nsquared_error = 0.022\nsamples = 4\nvalue = 23.275", fillcolor="#f4ccaf"] ;
47 -> 48 ;
49 [label="squared_error = 0.0\nsamples = 1\nvalue = 23.5", fillcolor="#f4cbae"] ;
48 -> 49 ;
50 [label="B <= 391.555\nsquared_error = 0.007\nsamples = 3\nvalue = 23.2", fillcolor="#f4ccaf"] ;
48 -> 50 ;
51 [label="squared_error = 0.0\nsamples = 1\nvalue = 23.3", fillcolor="#f4ccae"] ;
50 -> 51 ;
52 [label="LSTAT <= 6.75\nsquared_error = 0.003\nsamples = 2\nvalue = 23.15", fillcolor="#f5ccaf"] ;
50 -> 52 ;
53 [label="squared_error = 0.0\nsamples = 1\nvalue = 23.1", fillcolor="#f5ccaf"] ;
52 -> 53 ;
54 [label="squared_error = 0.0\nsamples = 1\nvalue = 23.2", fillcolor="#f4ccaf"] ;
52 -> 54 ;
55 [label="AGE <= 18.35\nsquared_error = 0.016\nsamples = 3\nvalue = 22.967", fillcolor="#f5cdb0"] ;
47 -> 55 ;
56 [label="squared_error = 0.0\nsamples = 1\nvalue = 22.8", fillcolor="#f5cdb1"] ;
55 -> 56 ;
57 [label="CRIM <= 0.243\nsquared_error = 0.002\nsamples = 2\nvalue = 23.05", fillcolor="#f5ccb0"] ;
55 -> 57 ;
58 [label="squared_error = 0.0\nsamples = 1\nvalue = 23.1", fillcolor="#f5ccaf"] ;
57 -> 58 ;
59 [label="squared_error = 0.0\nsamples = 1\nvalue = 23.0", fillcolor="#f5cdb0"] ;
57 -> 59 ;
60 [label="LSTAT <= 7.315\nsquared_error = 0.023\nsamples = 2\nvalue = 23.95", fillcolor="#f4caac"] ;
46 -> 60 ;
61 [label="squared_error = 0.0\nsamples = 1\nvalue = 23.8", fillcolor="#f4caac"] ;
60 -> 61 ;
62 [label="squared_error = -0.0\nsamples = 1\nvalue = 24.1", fillcolor="#f4caab"] ;
60 -> 62 ;
63 [label="TAX <= 394.0\nsquared_error = 0.003\nsamples = 2\nvalue = 22.55", fillcolor="#f5ceb2"] ;
39 -> 63 ;
64 [label="squared_error = 0.0\nsamples = 1\nvalue = 22.5", fillcolor="#f5ceb2"] ;
63 -> 64 ;
65 [label="squared_error = -0.0\nsamples = 1\nvalue = 22.6", fillcolor="#f5ceb2"] ;
63 -> 65 ;
66 [label="squared_error = 0.0\nsamples = 1\nvalue = 22.2", fillcolor="#f5cfb3"] ;
38 -> 66 ;
67 [label="squared_error = 0.0\nsamples = 1\nvalue = 25.0", fillcolor="#f3c7a7"] ;
35 -> 67 ;
68 [label="RM <= 6.313\nsquared_error = 0.536\nsamples = 3\nvalue = 21.167", fillcolor="#f6d2b8"] ;
30 -> 68 ;
69 [label="NOX <= 0.464\nsquared_error = 0.003\nsamples = 2\nvalue = 20.65", fillcolor="#f6d3ba"] ;
68 -> 69 ;
70 [label="squared_error = 0.0\nsamples = 1\nvalue = 20.6", fillcolor="#f6d3ba"] ;
69 -> 70 ;
71 [label="squared_error = 0.0\nsamples = 1\nvalue = 20.7", fillcolor="#f6d3ba"] ;
69 -> 71 ;
72 [label="squared_error = -0.0\nsamples = 1\nvalue = 22.2", fillcolor="#f5cfb3"] ;
68 -> 72 ;
73 [label="TAX <= 208.0\nsquared_error = 7.877\nsamples = 114\nvalue = 20.823", fillcolor="#f6d3b9"] ;
7 -> 73 ;
74 [label="LSTAT <= 11.715\nsquared_error = 35.227\nsamples = 3\nvalue = 28.2", fillcolor="#f2be99"] ;
73 -> 74 ;
75 [label="squared_error = 0.0\nsamples = 1\nvalue = 36.2", fillcolor="#eda876"] ;
74 -> 75 ;
76 [label="B <= 390.075\nsquared_error = 4.84\nsamples = 2\nvalue = 24.2", fillcolor="#f4c9ab"] ;
74 -> 76 ;
77 [label="squared_error = 0.0\nsamples = 1\nvalue = 22.0", fillcolor="#f5cfb4"] ;
76 -> 77 ;
78 [label="squared_error = 0.0\nsamples = 1\nvalue = 26.4", fillcolor="#f3c3a1"] ;
76 -> 78 ;
79 [label="RM <= 6.078\nsquared_error = 5.628\nsamples = 111\nvalue = 20.623", fillcolor="#f6d3ba"] ;
73 -> 79 ;
80 [label="RAD <= 2.0\nsquared_error = 5.69\nsamples = 59\nvalue = 19.892", fillcolor="#f6d5bd"] ;
79 -> 80 ;
81 [label="TAX <= 288.5\nsquared_error = 9.842\nsamples = 3\nvalue = 16.133", fillcolor="#f9e0ce"] ;
80 -> 81 ;
82 [label="squared_error = 0.0\nsamples = 1\nvalue = 11.9", fillcolor="#fbece1"] ;
81 -> 82 ;
83 [label="RM <= 5.868\nsquared_error = 1.322\nsamples = 2\nvalue = 18.25", fillcolor="#f7dac5"] ;
81 -> 83 ;
84 [label="squared_error = 0.0\nsamples = 1\nvalue = 17.1", fillcolor="#f8ddca"] ;
83 -> 84 ;
85 [label="squared_error = 0.0\nsamples = 1\nvalue = 19.4", fillcolor="#f7d7c0"] ;
83 -> 85 ;
86 [label="DIS <= 6.106\nsquared_error = 4.67\nsamples = 56\nvalue = 20.093", fillcolor="#f6d5bd"] ;
80 -> 86 ;
87 [label="RM <= 6.07\nsquared_error = 4.703\nsamples = 46\nvalue = 20.478", fillcolor="#f6d4bb"] ;
86 -> 87 ;
88 [label="RM <= 5.848\nsquared_error = 3.995\nsamples = 45\nvalue = 20.611", fillcolor="#f6d3ba"] ;
87 -> 88 ;
89 [label="CHAS <= 0.5\nsquared_error = 3.948\nsamples = 18\nvalue = 19.761", fillcolor="#f6d6be"] ;
88 -> 89 ;
90 [label="DIS <= 2.451\nsquared_error = 2.941\nsamples = 17\nvalue = 20.024", fillcolor="#f6d5bd"] ;
89 -> 90 ;
91 [label="NOX <= 0.708\nsquared_error = 1.488\nsamples = 6\nvalue = 21.483", fillcolor="#f5d1b6"] ;
90 -> 91 ;
92 [label="NOX <= 0.623\nsquared_error = 0.817\nsamples = 4\nvalue = 22.125", fillcolor="#f5cfb4"] ;
91 -> 92 ;
93 [label="LSTAT <= 13.055\nsquared_error = 0.25\nsamples = 2\nvalue = 21.3", fillcolor="#f6d1b7"] ;
92 -> 93 ;
94 [label="squared_error = 0.0\nsamples = 1\nvalue = 21.8", fillcolor="#f5d0b5"] ;
93 -> 94 ;
95 [label="squared_error = 0.0\nsamples = 1\nvalue = 20.8", fillcolor="#f6d3b9"] ;
93 -> 95 ;
96 [label="RAD <= 14.5\nsquared_error = 0.023\nsamples = 2\nvalue = 22.95", fillcolor="#f5cdb0"] ;
92 -> 96 ;
97 [label="squared_error = 0.0\nsamples = 1\nvalue = 22.8", fillcolor="#f5cdb1"] ;
96 -> 97 ;
98 [label="squared_error = -0.0\nsamples = 1\nvalue = 23.1", fillcolor="#f5ccaf"] ;
96 -> 98 ;
99 [label="LSTAT <= 11.735\nsquared_error = 0.36\nsamples = 2\nvalue = 20.2", fillcolor="#f6d4bc"] ;
91 -> 99 ;
100 [label="squared_error = 0.0\nsamples = 1\nvalue = 20.8", fillcolor="#f6d3b9"] ;
99 -> 100 ;
101 [label="squared_error = -0.0\nsamples = 1\nvalue = 19.6", fillcolor="#f7d6bf"] ;
99 -> 101 ;
102 [label="RM <= 5.214\nsquared_error = 1.937\nsamples = 11\nvalue = 19.227", fillcolor="#f7d7c0"] ;
90 -> 102 ;
103 [label="squared_error = 0.0\nsamples = 1\nvalue = 16.1", fillcolor="#f9e0ce"] ;
102 -> 103 ;
104 [label="AGE <= 67.35\nsquared_error = 1.054\nsamples = 10\nvalue = 19.54", fillcolor="#f7d6bf"] ;
102 -> 104 ;
105 [label="INDUS <= 14.055\nsquared_error = 0.608\nsamples = 7\nvalue = 20.057", fillcolor="#f6d5bd"] ;
104 -> 105 ;
106 [label="PTRATIO <= 18.55\nsquared_error = 0.138\nsamples = 5\nvalue = 19.74", fillcolor="#f6d6be"] ;
105 -> 106 ;
107 [label="squared_error = 0.0\nsamples = 2\nvalue = 19.3", fillcolor="#f7d7c0"] ;
106 -> 107 ;
108 [label="LSTAT <= 11.55\nsquared_error = 0.016\nsamples = 3\nvalue = 20.033", fillcolor="#f6d5bd"] ;
106 -> 108 ;
109 [label="DIS <= 3.938\nsquared_error = 0.003\nsamples = 2\nvalue = 19.95", fillcolor="#f6d5bd"] ;
108 -> 109 ;
110 [label="squared_error = 0.0\nsamples = 1\nvalue = 20.0", fillcolor="#f6d5bd"] ;
109 -> 110 ;
111 [label="squared_error = 0.0\nsamples = 1\nvalue = 19.9", fillcolor="#f6d5bd"] ;
109 -> 111 ;
112 [label="squared_error = -0.0\nsamples = 1\nvalue = 20.2", fillcolor="#f6d4bc"] ;
108 -> 112 ;
113 [label="CRIM <= 2.991\nsquared_error = 0.902\nsamples = 2\nvalue = 20.85", fillcolor="#f6d3b9"] ;
105 -> 113 ;
114 [label="squared_error = 0.0\nsamples = 1\nvalue = 21.8", fillcolor="#f5d0b5"] ;
113 -> 114 ;
115 [label="squared_error = -0.0\nsamples = 1\nvalue = 19.9", fillcolor="#f6d5bd"] ;
113 -> 115 ;
116 [label="TAX <= 297.0\nsquared_error = 0.016\nsamples = 3\nvalue = 18.333", fillcolor="#f7dac4"] ;
104 -> 116 ;
117 [label="squared_error = 0.0\nsamples = 1\nvalue = 18.5", fillcolor="#f7d9c4"] ;
116 -> 117 ;
118 [label="NOX <= 0.561\nsquared_error = 0.003\nsamples = 2\nvalue = 18.25", fillcolor="#f7dac5"] ;
116 -> 118 ;
119 [label="squared_error = 0.0\nsamples = 1\nvalue = 18.2", fillcolor="#f7dac5"] ;
118 -> 119 ;
120 [label="squared_error = 0.0\nsamples = 1\nvalue = 18.3", fillcolor="#f7dac4"] ;
118 -> 120 ;
121 [label="squared_error = -0.0\nsamples = 1\nvalue = 15.3", fillcolor="#f9e2d2"] ;
89 -> 121 ;
122 [label="PTRATIO <= 19.4\nsquared_error = 3.224\nsamples = 27\nvalue = 21.178", fillcolor="#f6d2b8"] ;
88 -> 122 ;
123 [label="AGE <= 80.9\nsquared_error = 3.168\nsamples = 17\nvalue = 21.929", fillcolor="#f5d0b5"] ;
122 -> 123 ;
124 [label="RAD <= 4.5\nsquared_error = 2.099\nsamples = 13\nvalue = 22.492", fillcolor="#f5ceb2"] ;
123 -> 124 ;
125 [label="INDUS <= 10.245\nsquared_error = 0.488\nsamples = 7\nvalue = 21.329", fillcolor="#f6d1b7"] ;
124 -> 125 ;
126 [label="AGE <= 51.8\nsquared_error = 0.127\nsamples = 4\nvalue = 20.825", fillcolor="#f6d3b9"] ;
125 -> 126 ;
127 [label="DIS <= 5.075\nsquared_error = 0.003\nsamples = 2\nvalue = 21.15", fillcolor="#f6d2b8"] ;
126 -> 127 ;
128 [label="squared_error = 0.0\nsamples = 1\nvalue = 21.1", fillcolor="#f6d2b8"] ;
127 -> 128 ;
129 [label="squared_error = 0.0\nsamples = 1\nvalue = 21.2", fillcolor="#f6d2b8"] ;
127 -> 129 ;
130 [label="LSTAT <= 11.81\nsquared_error = 0.04\nsamples = 2\nvalue = 20.5", fillcolor="#f6d4bb"] ;
126 -> 130 ;
131 [label="squared_error = 0.0\nsamples = 1\nvalue = 20.3", fillcolor="#f6d4bc"] ;
130 -> 131 ;
132 [label="squared_error = -0.0\nsamples = 1\nvalue = 20.7", fillcolor="#f6d3ba"] ;
130 -> 132 ;
133 [label="RM <= 5.926\nsquared_error = 0.18\nsamples = 3\nvalue = 22.0", fillcolor="#f5cfb4"] ;
125 -> 133 ;
134 [label="squared_error = 0.0\nsamples = 1\nvalue = 22.6", fillcolor="#f5ceb2"] ;
133 -> 134 ;
135 [label="squared_error = 0.0\nsamples = 2\nvalue = 21.7", fillcolor="#f5d0b6"] ;
133 -> 135 ;
136 [label="CRIM <= 0.13\nsquared_error = 0.556\nsamples = 6\nvalue = 23.85", fillcolor="#f4caac"] ;
124 -> 136 ;
137 [label="CRIM <= 0.077\nsquared_error = 0.09\nsamples = 2\nvalue = 22.9", fillcolor="#f5cdb0"] ;
136 -> 137 ;
138 [label="squared_error = 0.0\nsamples = 1\nvalue = 23.2", fillcolor="#f4ccaf"] ;
137 -> 138 ;
139 [label="squared_error = 0.0\nsamples = 1\nvalue = 22.6", fillcolor="#f5ceb2"] ;
137 -> 139 ;
140 [label="B <= 302.98\nsquared_error = 0.112\nsamples = 4\nvalue = 24.325", fillcolor="#f4c9aa"] ;
136 -> 140 ;
141 [label="squared_error = 0.0\nsamples = 1\nvalue = 23.8", fillcolor="#f4caac"] ;
140 -> 141 ;
142 [label="PTRATIO <= 18.3\nsquared_error = 0.027\nsamples = 3\nvalue = 24.5", fillcolor="#f4c8a9"] ;
140 -> 142 ;
143 [label="squared_error = 0.0\nsamples = 1\nvalue = 24.3", fillcolor="#f4c9aa"] ;
142 -> 143 ;
144 [label="DIS <= 3.115\nsquared_error = 0.01\nsamples = 2\nvalue = 24.6", fillcolor="#f4c8a9"] ;
142 -> 144 ;
145 [label="squared_error = 0.0\nsamples = 1\nvalue = 24.5", fillcolor="#f4c8a9"] ;
144 -> 145 ;
146 [label="squared_error = -0.0\nsamples = 1\nvalue = 24.7", fillcolor="#f4c8a8"] ;
144 -> 146 ;
147 [label="RM <= 5.867\nsquared_error = 2.265\nsamples = 4\nvalue = 20.1", fillcolor="#f6d5bd"] ;
123 -> 147 ;
148 [label="squared_error = 0.0\nsamples = 1\nvalue = 22.7", fillcolor="#f5cdb1"] ;
147 -> 148 ;
149 [label="NOX <= 0.546\nsquared_error = 0.016\nsamples = 3\nvalue = 19.233", fillcolor="#f7d7c0"] ;
147 -> 149 ;
150 [label="squared_error = 0.0\nsamples = 1\nvalue = 19.4", fillcolor="#f7d7c0"] ;
149 -> 150 ;
151 [label="AGE <= 89.95\nsquared_error = 0.003\nsamples = 2\nvalue = 19.15", fillcolor="#f7d7c1"] ;
149 -> 151 ;
152 [label="squared_error = 0.0\nsamples = 1\nvalue = 19.2", fillcolor="#f7d7c1"] ;
151 -> 152 ;
153 [label="squared_error = 0.0\nsamples = 1\nvalue = 19.1", fillcolor="#f7d8c1"] ;
151 -> 153 ;
154 [label="LSTAT <= 8.9\nsquared_error = 0.726\nsamples = 10\nvalue = 19.9", fillcolor="#f6d5bd"] ;
122 -> 154 ;
155 [label="AGE <= 35.9\nsquared_error = 0.082\nsamples = 4\nvalue = 20.625", fillcolor="#f6d3ba"] ;
154 -> 155 ;
156 [label="squared_error = 0.0\nsamples = 1\nvalue = 21.1", fillcolor="#f6d2b8"] ;
155 -> 156 ;
157 [label="DIS <= 4.767\nsquared_error = 0.009\nsamples = 3\nvalue = 20.467", fillcolor="#f6d4bb"] ;
155 -> 157 ;
158 [label="squared_error = 0.0\nsamples = 2\nvalue = 20.4", fillcolor="#f6d4bb"] ;
157 -> 158 ;
159 [label="squared_error = -0.0\nsamples = 1\nvalue = 20.6", fillcolor="#f6d3ba"] ;
157 -> 159 ;
160 [label="NOX <= 0.526\nsquared_error = 0.571\nsamples = 6\nvalue = 19.417", fillcolor="#f7d7c0"] ;
154 -> 160 ;
161 [label="AGE <= 51.95\nsquared_error = 0.042\nsamples = 3\nvalue = 18.733", fillcolor="#f7d9c3"] ;
160 -> 161 ;
162 [label="squared_error = 0.0\nsamples = 1\nvalue = 19.0", fillcolor="#f7d8c1"] ;
161 -> 162 ;
163 [label="LSTAT <= 9.925\nsquared_error = 0.01\nsamples = 2\nvalue = 18.6", fillcolor="#f7d9c3"] ;
161 -> 163 ;
164 [label="squared_error = 0.0\nsamples = 1\nvalue = 18.7", fillcolor="#f7d9c3"] ;
163 -> 164 ;
165 [label="squared_error = -0.0\nsamples = 1\nvalue = 18.5", fillcolor="#f7d9c4"] ;
163 -> 165 ;
166 [label="B <= 381.63\nsquared_error = 0.167\nsamples = 3\nvalue = 20.1", fillcolor="#f6d5bd"] ;
160 -> 166 ;
167 [label="squared_error = 0.0\nsamples = 1\nvalue = 20.6", fillcolor="#f6d3ba"] ;
166 -> 167 ;
168 [label="PTRATIO <= 20.55\nsquared_error = 0.062\nsamples = 2\nvalue = 19.85", fillcolor="#f6d5be"] ;
166 -> 168 ;
169 [label="squared_error = 0.0\nsamples = 1\nvalue = 20.1", fillcolor="#f6d5bd"] ;
168 -> 169 ;
170 [label="squared_error = -0.0\nsamples = 1\nvalue = 19.6", fillcolor="#f7d6bf"] ;
168 -> 170 ;
171 [label="squared_error = 0.0\nsamples = 1\nvalue = 14.5", fillcolor="#fae4d5"] ;
87 -> 171 ;
172 [label="PTRATIO <= 18.55\nsquared_error = 0.694\nsamples = 10\nvalue = 18.32", fillcolor="#f7dac4"] ;
86 -> 172 ;
173 [label="TAX <= 277.0\nsquared_error = 0.182\nsamples = 4\nvalue = 19.15", fillcolor="#f7d7c1"] ;
172 -> 173 ;
174 [label="squared_error = 0.0\nsamples = 1\nvalue = 19.7", fillcolor="#f7d6be"] ;
173 -> 174 ;
175 [label="CRIM <= 0.058\nsquared_error = 0.109\nsamples = 3\nvalue = 18.967", fillcolor="#f7d8c2"] ;
173 -> 175 ;
176 [label="squared_error = 0.0\nsamples = 1\nvalue = 19.4", fillcolor="#f7d7c0"] ;
175 -> 176 ;
177 [label="NOX <= 0.468\nsquared_error = 0.023\nsamples = 2\nvalue = 18.75", fillcolor="#f7d8c2"] ;
175 -> 177 ;
178 [label="squared_error = 0.0\nsamples = 1\nvalue = 18.6", fillcolor="#f7d9c3"] ;
177 -> 178 ;
179 [label="squared_error = 0.0\nsamples = 1\nvalue = 18.9", fillcolor="#f7d8c2"] ;
177 -> 179 ;
180 [label="PTRATIO <= 19.4\nsquared_error = 0.269\nsamples = 6\nvalue = 17.767", fillcolor="#f8dbc7"] ;
172 -> 180 ;
181 [label="B <= 368.55\nsquared_error = 0.022\nsamples = 4\nvalue = 17.425", fillcolor="#f8dcc8"] ;
180 -> 181 ;
182 [label="squared_error = 0.0\nsamples = 1\nvalue = 17.2", fillcolor="#f8ddc9"] ;
181 -> 182 ;
183 [label="TAX <= 337.5\nsquared_error = 0.007\nsamples = 3\nvalue = 17.5", fillcolor="#f8dcc8"] ;
181 -> 183 ;
184 [label="squared_error = 0.0\nsamples = 1\nvalue = 17.6", fillcolor="#f8dcc8"] ;
183 -> 184 ;
185 [label="DIS <= 7.256\nsquared_error = 0.002\nsamples = 2\nvalue = 17.45", fillcolor="#f8dcc8"] ;
183 -> 185 ;
186 [label="squared_error = 0.0\nsamples = 1\nvalue = 17.4", fillcolor="#f8dcc8"] ;
185 -> 186 ;
187 [label="squared_error = 0.0\nsamples = 1\nvalue = 17.5", fillcolor="#f8dcc8"] ;
185 -> 187 ;
188 [label="RM <= 5.702\nsquared_error = 0.062\nsamples = 2\nvalue = 18.45", fillcolor="#f7d9c4"] ;
180 -> 188 ;
189 [label="squared_error = 0.0\nsamples = 1\nvalue = 18.2", fillcolor="#f7dac5"] ;
188 -> 189 ;
190 [label="squared_error = 0.0\nsamples = 1\nvalue = 18.7", fillcolor="#f7d9c3"] ;
188 -> 190 ;
191 [label="AGE <= 58.75\nsquared_error = 4.26\nsamples = 52\nvalue = 21.454", fillcolor="#f5d1b7"] ;
79 -> 191 ;
192 [label="RM <= 6.474\nsquared_error = 2.436\nsamples = 18\nvalue = 22.639", fillcolor="#f5ceb1"] ;
191 -> 192 ;
193 [label="B <= 389.4\nsquared_error = 1.543\nsamples = 16\nvalue = 22.294", fillcolor="#f5cfb3"] ;
192 -> 193 ;
194 [label="RM <= 6.231\nsquared_error = 0.399\nsamples = 6\nvalue = 21.15", fillcolor="#f6d2b8"] ;
193 -> 194 ;
195 [label="RM <= 6.185\nsquared_error = 0.122\nsamples = 2\nvalue = 20.45", fillcolor="#f6d4bb"] ;
194 -> 195 ;
196 [label="squared_error = 0.0\nsamples = 1\nvalue = 20.8", fillcolor="#f6d3b9"] ;
195 -> 196 ;
197 [label="squared_error = -0.0\nsamples = 1\nvalue = 20.1", fillcolor="#f6d5bd"] ;
195 -> 197 ;
198 [label="DIS <= 6.025\nsquared_error = 0.17\nsamples = 4\nvalue = 21.5", fillcolor="#f5d1b6"] ;
194 -> 198 ;
199 [label="AGE <= 48.45\nsquared_error = 0.009\nsamples = 3\nvalue = 21.267", fillcolor="#f6d1b7"] ;
198 -> 199 ;
200 [label="squared_error = 0.0\nsamples = 1\nvalue = 21.4", fillcolor="#f6d1b7"] ;
199 -> 200 ;
201 [label="squared_error = 0.0\nsamples = 2\nvalue = 21.2", fillcolor="#f6d2b8"] ;
199 -> 201 ;
202 [label="squared_error = 0.0\nsamples = 1\nvalue = 22.2", fillcolor="#f5cfb3"] ;
198 -> 202 ;
203 [label="NOX <= 0.491\nsquared_error = 0.974\nsamples = 10\nvalue = 22.98", fillcolor="#f5cdb0"] ;
193 -> 203 ;
204 [label="LSTAT <= 8.51\nsquared_error = 0.87\nsamples = 8\nvalue = 23.238", fillcolor="#f4ccaf"] ;
203 -> 204 ;
205 [label="DIS <= 3.707\nsquared_error = 0.113\nsamples = 4\nvalue = 22.35", fillcolor="#f5ceb3"] ;
204 -> 205 ;
206 [label="squared_error = 0.0\nsamples = 1\nvalue = 22.9", fillcolor="#f5cdb0"] ;
205 -> 206 ;
207 [label="AGE <= 38.75\nsquared_error = 0.016\nsamples = 3\nvalue = 22.167", fillcolor="#f5cfb3"] ;
205 -> 207 ;
208 [label="squared_error = 0.0\nsamples = 1\nvalue = 22.0", fillcolor="#f5cfb4"] ;
207 -> 208 ;
209 [label="ZN <= 26.25\nsquared_error = 0.002\nsamples = 2\nvalue = 22.25", fillcolor="#f5cfb3"] ;
207 -> 209 ;
210 [label="squared_error = 0.0\nsamples = 1\nvalue = 22.2", fillcolor="#f5cfb3"] ;
209 -> 210 ;
211 [label="squared_error = 0.0\nsamples = 1\nvalue = 22.3", fillcolor="#f5cfb3"] ;
209 -> 211 ;
212 [label="PTRATIO <= 18.55\nsquared_error = 0.052\nsamples = 4\nvalue = 24.125", fillcolor="#f4c9ab"] ;
204 -> 212 ;
213 [label="squared_error = 0.0\nsamples = 2\nvalue = 23.9", fillcolor="#f4caac"] ;
212 -> 213 ;
214 [label="ZN <= 11.0\nsquared_error = 0.002\nsamples = 2\nvalue = 24.35", fillcolor="#f4c9aa"] ;
212 -> 214 ;
215 [label="squared_error = 0.0\nsamples = 1\nvalue = 24.4", fillcolor="#f4c9aa"] ;
214 -> 215 ;
216 [label="squared_error = -0.0\nsamples = 1\nvalue = 24.3", fillcolor="#f4c9aa"] ;
214 -> 216 ;
217 [label="CRIM <= 0.174\nsquared_error = 0.063\nsamples = 2\nvalue = 21.95", fillcolor="#f5d0b4"] ;
203 -> 217 ;
218 [label="squared_error = 0.0\nsamples = 1\nvalue = 21.7", fillcolor="#f5d0b6"] ;
217 -> 218 ;
219 [label="squared_error = 0.0\nsamples = 1\nvalue = 22.2", fillcolor="#f5cfb3"] ;
217 -> 219 ;
220 [label="ZN <= 27.0\nsquared_error = 1.0\nsamples = 2\nvalue = 25.4", fillcolor="#f3c6a5"] ;
192 -> 220 ;
221 [label="squared_error = 0.0\nsamples = 1\nvalue = 24.4", fillcolor="#f4c9aa"] ;
220 -> 221 ;
222 [label="squared_error = -0.0\nsamples = 1\nvalue = 26.4", fillcolor="#f3c3a1"] ;
220 -> 222 ;
223 [label="B <= 197.52\nsquared_error = 4.088\nsamples = 34\nvalue = 20.826", fillcolor="#f6d3b9"] ;
191 -> 223 ;
224 [label="NOX <= 0.552\nsquared_error = 1.562\nsamples = 2\nvalue = 17.35", fillcolor="#f8dcc9"] ;
223 -> 224 ;
225 [label="squared_error = 0.0\nsamples = 1\nvalue = 18.6", fillcolor="#f7d9c3"] ;
224 -> 225 ;
226 [label="squared_error = 0.0\nsamples = 1\nvalue = 16.1", fillcolor="#f9e0ce"] ;
224 -> 226 ;
227 [label="DIS <= 4.027\nsquared_error = 3.444\nsamples = 32\nvalue = 21.044", fillcolor="#f6d2b8"] ;
223 -> 227 ;
228 [label="LSTAT <= 11.23\nsquared_error = 2.798\nsamples = 27\nvalue = 21.411", fillcolor="#f6d1b7"] ;
227 -> 228 ;
229 [label="B <= 387.25\nsquared_error = 3.053\nsamples = 13\nvalue = 22.231", fillcolor="#f5cfb3"] ;
228 -> 229 ;
230 [label="LSTAT <= 9.335\nsquared_error = 0.508\nsamples = 4\nvalue = 23.95", fillcolor="#f4caac"] ;
229 -> 230 ;
231 [label="squared_error = 0.0\nsamples = 1\nvalue = 25.0", fillcolor="#f3c7a7"] ;
230 -> 231 ;
232 [label="TAX <= 420.0\nsquared_error = 0.187\nsamples = 3\nvalue = 23.6", fillcolor="#f4cbad"] ;
230 -> 232 ;
233 [label="RAD <= 6.5\nsquared_error = 0.01\nsamples = 2\nvalue = 23.9", fillcolor="#f4caac"] ;
232 -> 233 ;
234 [label="squared_error = 0.0\nsamples = 1\nvalue = 23.8", fillcolor="#f4caac"] ;
233 -> 234 ;
235 [label="squared_error = 0.0\nsamples = 1\nvalue = 24.0", fillcolor="#f4caab"] ;
233 -> 235 ;
236 [label="squared_error = 0.0\nsamples = 1\nvalue = 23.0", fillcolor="#f5cdb0"] ;
232 -> 236 ;
237 [label="DIS <= 2.947\nsquared_error = 2.287\nsamples = 9\nvalue = 21.467", fillcolor="#f5d1b7"] ;
229 -> 237 ;
238 [label="PTRATIO <= 19.0\nsquared_error = 0.829\nsamples = 3\nvalue = 19.767", fillcolor="#f6d6be"] ;
237 -> 238 ;
239 [label="squared_error = 0.0\nsamples = 1\nvalue = 18.5", fillcolor="#f7d9c4"] ;
238 -> 239 ;
240 [label="TAX <= 469.5\nsquared_error = 0.04\nsamples = 2\nvalue = 20.4", fillcolor="#f6d4bb"] ;
238 -> 240 ;
241 [label="squared_error = 0.0\nsamples = 1\nvalue = 20.6", fillcolor="#f6d3ba"] ;
240 -> 241 ;
242 [label="squared_error = 0.0\nsamples = 1\nvalue = 20.2", fillcolor="#f6d4bc"] ;
240 -> 242 ;
243 [label="CRIM <= 0.045\nsquared_error = 0.848\nsamples = 6\nvalue = 22.317", fillcolor="#f5cfb3"] ;
237 -> 243 ;
244 [label="squared_error = 0.0\nsamples = 1\nvalue = 20.6", fillcolor="#f6d3ba"] ;
243 -> 244 ;
245 [label="LSTAT <= 8.355\nsquared_error = 0.31\nsamples = 5\nvalue = 22.66", fillcolor="#f5ceb1"] ;
243 -> 245 ;
246 [label="squared_error = 0.0\nsamples = 1\nvalue = 21.6", fillcolor="#f5d1b6"] ;
245 -> 246 ;
247 [label="LSTAT <= 9.585\nsquared_error = 0.037\nsamples = 4\nvalue = 22.925", fillcolor="#f5cdb0"] ;
245 -> 247 ;
248 [label="squared_error = 0.0\nsamples = 1\nvalue = 22.6", fillcolor="#f5ceb2"] ;
247 -> 248 ;
249 [label="RAD <= 4.5\nsquared_error = 0.002\nsamples = 3\nvalue = 23.033", fillcolor="#f5cdb0"] ;
247 -> 249 ;
250 [label="squared_error = 0.0\nsamples = 1\nvalue = 23.1", fillcolor="#f5ccaf"] ;
249 -> 250 ;
251 [label="RM <= 6.308\nsquared_error = 0.0\nsamples = 2\nvalue = 23.0", fillcolor="#f5cdb0"] ;
249 -> 251 ;
252 [label="squared_error = 0.0\nsamples = 1\nvalue = 23.0", fillcolor="#f5cdb0"] ;
251 -> 252 ;
253 [label="squared_error = 0.0\nsamples = 1\nvalue = 23.0", fillcolor="#f5cdb0"] ;
251 -> 253 ;
254 [label="AGE <= 82.15\nsquared_error = 1.358\nsamples = 14\nvalue = 20.65", fillcolor="#f6d3ba"] ;
228 -> 254 ;
255 [label="TAX <= 549.0\nsquared_error = 0.746\nsamples = 5\nvalue = 21.88", fillcolor="#f5d0b5"] ;
254 -> 255 ;
256 [label="PTRATIO <= 18.2\nsquared_error = 0.027\nsamples = 3\nvalue = 21.2", fillcolor="#f6d2b8"] ;
255 -> 256 ;
257 [label="DIS <= 3.113\nsquared_error = 0.01\nsamples = 2\nvalue = 21.3", fillcolor="#f6d1b7"] ;
256 -> 257 ;
258 [label="squared_error = 0.0\nsamples = 1\nvalue = 21.2", fillcolor="#f6d2b8"] ;
257 -> 258 ;
259 [label="squared_error = 0.0\nsamples = 1\nvalue = 21.4", fillcolor="#f6d1b7"] ;
257 -> 259 ;
260 [label="squared_error = 0.0\nsamples = 1\nvalue = 21.0", fillcolor="#f6d2b9"] ;
256 -> 260 ;
261 [label="CRIM <= 3.915\nsquared_error = 0.09\nsamples = 2\nvalue = 22.9", fillcolor="#f5cdb0"] ;
255 -> 261 ;
262 [label="squared_error = 0.0\nsamples = 1\nvalue = 23.2", fillcolor="#f4ccaf"] ;
261 -> 262 ;
263 [label="squared_error = 0.0\nsamples = 1\nvalue = 22.6", fillcolor="#f5ceb2"] ;
261 -> 263 ;
264 [label="NOX <= 0.82\nsquared_error = 0.391\nsamples = 9\nvalue = 19.967", fillcolor="#f6d5bd"] ;
254 -> 264 ;
265 [label="B <= 393.58\nsquared_error = 0.109\nsamples = 8\nvalue = 19.775", fillcolor="#f6d6be"] ;
264 -> 265 ;
266 [label="RM <= 6.147\nsquared_error = 0.042\nsamples = 3\nvalue = 20.133", fillcolor="#f6d5bc"] ;
265 -> 266 ;
267 [label="squared_error = 0.0\nsamples = 1\nvalue = 20.4", fillcolor="#f6d4bb"] ;
266 -> 267 ;
268 [label="DIS <= 2.358\nsquared_error = 0.01\nsamples = 2\nvalue = 20.0", fillcolor="#f6d5bd"] ;
266 -> 268 ;
269 [label="squared_error = 0.0\nsamples = 1\nvalue = 19.9", fillcolor="#f6d5bd"] ;
268 -> 269 ;
270 [label="squared_error = 0.0\nsamples = 1\nvalue = 20.1", fillcolor="#f6d5bd"] ;
268 -> 270 ;
271 [label="LSTAT <= 13.155\nsquared_error = 0.026\nsamples = 5\nvalue = 19.56", fillcolor="#f7d6bf"] ;
265 -> 271 ;
272 [label="RM <= 6.4\nsquared_error = 0.009\nsamples = 3\nvalue = 19.667", fillcolor="#f7d6be"] ;
271 -> 272 ;
273 [label="squared_error = 0.0\nsamples = 2\nvalue = 19.6", fillcolor="#f7d6bf"] ;
272 -> 273 ;
274 [label="squared_error = -0.0\nsamples = 1\nvalue = 19.8", fillcolor="#f6d6be"] ;
272 -> 274 ;
275 [label="TAX <= 525.0\nsquared_error = 0.01\nsamples = 2\nvalue = 19.4", fillcolor="#f7d7c0"] ;
271 -> 275 ;
276 [label="squared_error = 0.0\nsamples = 1\nvalue = 19.3", fillcolor="#f7d7c0"] ;
275 -> 276 ;
277 [label="squared_error = 0.0\nsamples = 1\nvalue = 19.5", fillcolor="#f7d6bf"] ;
275 -> 277 ;
278 [label="squared_error = -0.0\nsamples = 1\nvalue = 21.5", fillcolor="#f5d1b6"] ;
264 -> 278 ;
279 [label="NOX <= 0.479\nsquared_error = 2.266\nsamples = 5\nvalue = 19.06", fillcolor="#f7d8c1"] ;
227 -> 279 ;
280 [label="AGE <= 64.05\nsquared_error = 0.047\nsamples = 3\nvalue = 20.2", fillcolor="#f6d4bc"] ;
279 -> 280 ;
281 [label="squared_error = 0.0\nsamples = 1\nvalue = 20.5", fillcolor="#f6d4bb"] ;
280 -> 281 ;
282 [label="NOX <= 0.433\nsquared_error = 0.002\nsamples = 2\nvalue = 20.05", fillcolor="#f6d5bd"] ;
280 -> 282 ;
283 [label="squared_error = 0.0\nsamples = 1\nvalue = 20.1", fillcolor="#f6d5bd"] ;
282 -> 283 ;
284 [label="squared_error = -0.0\nsamples = 1\nvalue = 20.0", fillcolor="#f6d5bd"] ;
282 -> 284 ;
285 [label="PTRATIO <= 18.45\nsquared_error = 0.722\nsamples = 2\nvalue = 17.35", fillcolor="#f8dcc9"] ;
279 -> 285 ;
286 [label="squared_error = 0.0\nsamples = 1\nvalue = 16.5", fillcolor="#f8dfcc"] ;
285 -> 286 ;
287 [label="squared_error = -0.0\nsamples = 1\nvalue = 18.2", fillcolor="#f7dac5"] ;
285 -> 287 ;
288 [label="TAX <= 269.0\nsquared_error = 14.011\nsamples = 41\nvalue = 27.088", fillcolor="#f2c19e"] ;
6 -> 288 ;
289 [label="B <= 396.265\nsquared_error = 2.913\nsamples = 10\nvalue = 31.41", fillcolor="#f0b58b"] ;
288 -> 289 ;
290 [label="RAD <= 6.0\nsquared_error = 1.043\nsamples = 6\nvalue = 30.35", fillcolor="#f0b88f"] ;
289 -> 290 ;
291 [label="B <= 392.415\nsquared_error = 0.338\nsamples = 5\nvalue = 30.74", fillcolor="#f0b78e"] ;
290 -> 291 ;
292 [label="squared_error = 0.0\nsamples = 2\nvalue = 30.1", fillcolor="#f0b991"] ;
291 -> 292 ;
293 [label="PTRATIO <= 15.35\nsquared_error = 0.109\nsamples = 3\nvalue = 31.167", fillcolor="#f0b68c"] ;
291 -> 293 ;
294 [label="squared_error = 0.0\nsamples = 1\nvalue = 31.6", fillcolor="#f0b58a"] ;
293 -> 294 ;
295 [label="INDUS <= 2.94\nsquared_error = 0.023\nsamples = 2\nvalue = 30.95", fillcolor="#f0b68d"] ;
293 -> 295 ;
296 [label="squared_error = 0.0\nsamples = 1\nvalue = 31.1", fillcolor="#f0b68c"] ;
295 -> 296 ;
297 [label="squared_error = -0.0\nsamples = 1\nvalue = 30.8", fillcolor="#f0b78d"] ;
295 -> 297 ;
298 [label="squared_error = -0.0\nsamples = 1\nvalue = 28.4", fillcolor="#f1bd98"] ;
290 -> 298 ;
299 [label="NOX <= 0.445\nsquared_error = 1.505\nsamples = 4\nvalue = 33.0", fillcolor="#efb184"] ;
289 -> 299 ;
300 [label="squared_error = 0.0\nsamples = 1\nvalue = 35.1", fillcolor="#eeab7b"] ;
299 -> 300 ;
301 [label="LSTAT <= 3.255\nsquared_error = 0.047\nsamples = 3\nvalue = 32.3", fillcolor="#efb387"] ;
299 -> 301 ;
302 [label="squared_error = 0.0\nsamples = 1\nvalue = 32.0", fillcolor="#efb388"] ;
301 -> 302 ;
303 [label="NOX <= 0.468\nsquared_error = 0.002\nsamples = 2\nvalue = 32.45", fillcolor="#efb286"] ;
301 -> 303 ;
304 [label="squared_error = 0.0\nsamples = 1\nvalue = 32.4", fillcolor="#efb286"] ;
303 -> 304 ;
305 [label="squared_error = -0.0\nsamples = 1\nvalue = 32.5", fillcolor="#efb286"] ;
303 -> 305 ;
306 [label="INDUS <= 4.455\nsquared_error = 9.621\nsamples = 31\nvalue = 25.694", fillcolor="#f3c5a4"] ;
288 -> 306 ;
307 [label="INDUS <= 2.6\nsquared_error = 8.622\nsamples = 13\nvalue = 27.623", fillcolor="#f2c09b"] ;
306 -> 307 ;
308 [label="RM <= 6.905\nsquared_error = 0.892\nsamples = 5\nvalue = 24.8", fillcolor="#f4c8a8"] ;
307 -> 308 ;
309 [label="LSTAT <= 5.74\nsquared_error = 0.102\nsamples = 4\nvalue = 24.35", fillcolor="#f4c9aa"] ;
308 -> 309 ;
310 [label="B <= 383.84\nsquared_error = 0.002\nsamples = 2\nvalue = 24.05", fillcolor="#f4caab"] ;
309 -> 310 ;
311 [label="squared_error = 0.0\nsamples = 1\nvalue = 24.1", fillcolor="#f4caab"] ;
310 -> 311 ;
312 [label="squared_error = -0.0\nsamples = 1\nvalue = 24.0", fillcolor="#f4caab"] ;
310 -> 312 ;
313 [label="AGE <= 38.55\nsquared_error = 0.022\nsamples = 2\nvalue = 24.65", fillcolor="#f4c8a9"] ;
309 -> 313 ;
314 [label="squared_error = 0.0\nsamples = 1\nvalue = 24.5", fillcolor="#f4c8a9"] ;
313 -> 314 ;
315 [label="squared_error = 0.0\nsamples = 1\nvalue = 24.8", fillcolor="#f4c8a8"] ;
313 -> 315 ;
316 [label="squared_error = 0.0\nsamples = 1\nvalue = 26.6", fillcolor="#f3c3a0"] ;
308 -> 316 ;
317 [label="LSTAT <= 7.05\nsquared_error = 5.359\nsamples = 8\nvalue = 29.388", fillcolor="#f1bb94"] ;
307 -> 317 ;
318 [label="RM <= 6.682\nsquared_error = 1.208\nsamples = 7\nvalue = 30.171", fillcolor="#f0b990"] ;
317 -> 318 ;
319 [label="INDUS <= 3.165\nsquared_error = 0.347\nsamples = 3\nvalue = 29.2", fillcolor="#f1bb95"] ;
318 -> 319 ;
320 [label="squared_error = 0.0\nsamples = 1\nvalue = 28.4", fillcolor="#f1bd98"] ;
319 -> 320 ;
321 [label="CRIM <= 0.096\nsquared_error = 0.04\nsamples = 2\nvalue = 29.6", fillcolor="#f1ba93"] ;
319 -> 321 ;
322 [label="squared_error = 0.0\nsamples = 1\nvalue = 29.4", fillcolor="#f1bb94"] ;
321 -> 322 ;
323 [label="squared_error = -0.0\nsamples = 1\nvalue = 29.8", fillcolor="#f1ba92"] ;
321 -> 323 ;
324 [label="CRIM <= 0.074\nsquared_error = 0.615\nsamples = 4\nvalue = 30.9", fillcolor="#f0b68d"] ;
318 -> 324 ;
325 [label="ZN <= 50.0\nsquared_error = 0.282\nsamples = 3\nvalue = 30.533", fillcolor="#f0b88f"] ;
324 -> 325 ;
326 [label="LSTAT <= 5.805\nsquared_error = 0.09\nsamples = 2\nvalue = 30.2", fillcolor="#f0b890"] ;
325 -> 326 ;
327 [label="squared_error = 0.0\nsamples = 1\nvalue = 30.5", fillcolor="#f0b88f"] ;
326 -> 327 ;
328 [label="squared_error = -0.0\nsamples = 1\nvalue = 29.9", fillcolor="#f1b991"] ;
326 -> 328 ;
329 [label="squared_error = -0.0\nsamples = 1\nvalue = 31.2", fillcolor="#f0b68c"] ;
325 -> 329 ;
330 [label="squared_error = 0.0\nsamples = 1\nvalue = 32.0", fillcolor="#efb388"] ;
324 -> 330 ;
331 [label="squared_error = -0.0\nsamples = 1\nvalue = 23.9", fillcolor="#f4caac"] ;
317 -> 331 ;
332 [label="INDUS <= 12.91\nsquared_error = 5.711\nsamples = 18\nvalue = 24.3", fillcolor="#f4c9aa"] ;
306 -> 332 ;
333 [label="B <= 365.96\nsquared_error = 4.014\nsamples = 15\nvalue = 23.76", fillcolor="#f4caac"] ;
332 -> 333 ;
334 [label="squared_error = 0.0\nsamples = 1\nvalue = 29.0", fillcolor="#f1bc95"] ;
333 -> 334 ;
335 [label="LSTAT <= 9.605\nsquared_error = 2.2\nsamples = 14\nvalue = 23.386", fillcolor="#f4ccae"] ;
333 -> 335 ;
336 [label="TAX <= 356.5\nsquared_error = 1.902\nsamples = 10\nvalue = 23.92", fillcolor="#f4caac"] ;
335 -> 336 ;
337 [label="RAD <= 7.5\nsquared_error = 1.291\nsamples = 9\nvalue = 23.633", fillcolor="#f4cbad"] ;
336 -> 337 ;
338 [label="NOX <= 0.427\nsquared_error = 0.922\nsamples = 7\nvalue = 23.229", fillcolor="#f4ccaf"] ;
337 -> 338 ;
339 [label="B <= 383.675\nsquared_error = 0.202\nsamples = 2\nvalue = 24.35", fillcolor="#f4c9aa"] ;
338 -> 339 ;
340 [label="squared_error = 0.0\nsamples = 1\nvalue = 24.8", fillcolor="#f4c8a8"] ;
339 -> 340 ;
341 [label="squared_error = -0.0\nsamples = 1\nvalue = 23.9", fillcolor="#f4caac"] ;
339 -> 341 ;
342 [label="RM <= 6.579\nsquared_error = 0.506\nsamples = 5\nvalue = 22.78", fillcolor="#f5cdb1"] ;
338 -> 342 ;
343 [label="squared_error = 0.0\nsamples = 1\nvalue = 23.8", fillcolor="#f4caac"] ;
342 -> 343 ;
344 [label="INDUS <= 5.51\nsquared_error = 0.307\nsamples = 4\nvalue = 22.525", fillcolor="#f5ceb2"] ;
342 -> 344 ;
345 [label="squared_error = 0.0\nsamples = 1\nvalue = 23.3", fillcolor="#f4ccae"] ;
344 -> 345 ;
346 [label="LSTAT <= 5.51\nsquared_error = 0.142\nsamples = 3\nvalue = 22.267", fillcolor="#f5cfb3"] ;
344 -> 346 ;
347 [label="squared_error = 0.0\nsamples = 1\nvalue = 22.8", fillcolor="#f5cdb1"] ;
346 -> 347 ;
348 [label="RM <= 6.692\nsquared_error = 0.0\nsamples = 2\nvalue = 22.0", fillcolor="#f5cfb4"] ;
346 -> 348 ;
349 [label="squared_error = 0.0\nsamples = 1\nvalue = 22.0", fillcolor="#f5cfb4"] ;
348 -> 349 ;
350 [label="squared_error = 0.0\nsamples = 1\nvalue = 22.0", fillcolor="#f5cfb4"] ;
348 -> 350 ;
351 [label="INDUS <= 5.665\nsquared_error = 0.003\nsamples = 2\nvalue = 25.05", fillcolor="#f3c7a7"] ;
337 -> 351 ;
352 [label="squared_error = 0.0\nsamples = 1\nvalue = 25.0", fillcolor="#f3c7a7"] ;
351 -> 352 ;
353 [label="squared_error = 0.0\nsamples = 1\nvalue = 25.1", fillcolor="#f3c7a7"] ;
351 -> 353 ;
354 [label="squared_error = 0.0\nsamples = 1\nvalue = 26.5", fillcolor="#f3c3a0"] ;
336 -> 354 ;
355 [label="B <= 385.74\nsquared_error = 0.448\nsamples = 4\nvalue = 22.05", fillcolor="#f5cfb4"] ;
335 -> 355 ;
356 [label="squared_error = 0.0\nsamples = 1\nvalue = 21.0", fillcolor="#f6d2b9"] ;
355 -> 356 ;
357 [label="CRIM <= 0.107\nsquared_error = 0.107\nsamples = 3\nvalue = 22.4", fillcolor="#f5ceb2"] ;
355 -> 357 ;
358 [label="INDUS <= 10.97\nsquared_error = 0.04\nsamples = 2\nvalue = 22.6", fillcolor="#f5ceb2"] ;
357 -> 358 ;
359 [label="squared_error = 0.0\nsamples = 1\nvalue = 22.8", fillcolor="#f5cdb1"] ;
358 -> 359 ;
360 [label="squared_error = -0.0\nsamples = 1\nvalue = 22.4", fillcolor="#f5ceb2"] ;
358 -> 360 ;
361 [label="squared_error = 0.0\nsamples = 1\nvalue = 22.0", fillcolor="#f5cfb4"] ;
357 -> 361 ;
362 [label="CRIM <= 2.919\nsquared_error = 5.447\nsamples = 3\nvalue = 27.0", fillcolor="#f2c19e"] ;
332 -> 362 ;
363 [label="INDUS <= 13.905\nsquared_error = 0.003\nsamples = 2\nvalue = 28.65", fillcolor="#f1bd97"] ;
362 -> 363 ;
364 [label="squared_error = 0.0\nsamples = 1\nvalue = 28.7", fillcolor="#f1bd97"] ;
363 -> 364 ;
365 [label="squared_error = 0.0\nsamples = 1\nvalue = 28.6", fillcolor="#f1bd97"] ;
363 -> 365 ;
366 [label="squared_error = -0.0\nsamples = 1\nvalue = 23.7", fillcolor="#f4cbad"] ;
362 -> 366 ;
367 [label="NOX <= 0.607\nsquared_error = 19.529\nsamples = 128\nvalue = 15.141", fillcolor="#f9e3d2"] ;
1 -> 367 ;
368 [label="CRIM <= 0.253\nsquared_error = 11.695\nsamples = 51\nvalue = 18.39", fillcolor="#f7dac4"] ;
367 -> 368 ;
369 [label="RM <= 6.047\nsquared_error = 6.576\nsamples = 26\nvalue = 20.046", fillcolor="#f6d5bd"] ;
368 -> 369 ;
370 [label="LSTAT <= 18.73\nsquared_error = 4.035\nsamples = 24\nvalue = 19.571", fillcolor="#f7d6bf"] ;
369 -> 370 ;
371 [label="DIS <= 6.456\nsquared_error = 3.34\nsamples = 21\nvalue = 19.967", fillcolor="#f6d5bd"] ;
370 -> 371 ;
372 [label="DIS <= 2.537\nsquared_error = 2.742\nsamples = 17\nvalue = 20.412", fillcolor="#f6d4bb"] ;
371 -> 372 ;
373 [label="RM <= 5.944\nsquared_error = 1.308\nsamples = 9\nvalue = 19.411", fillcolor="#f7d7c0"] ;
372 -> 373 ;
374 [label="CRIM <= 0.171\nsquared_error = 0.753\nsamples = 7\nvalue = 18.971", fillcolor="#f7d8c2"] ;
373 -> 374 ;
375 [label="LSTAT <= 15.79\nsquared_error = 0.348\nsamples = 5\nvalue = 19.4", fillcolor="#f7d7c0"] ;
374 -> 375 ;
376 [label="squared_error = 0.0\nsamples = 1\nvalue = 20.4", fillcolor="#f6d4bb"] ;
375 -> 376 ;
377 [label="PTRATIO <= 20.0\nsquared_error = 0.123\nsamples = 4\nvalue = 19.15", fillcolor="#f7d7c1"] ;
375 -> 377 ;
378 [label="squared_error = 0.0\nsamples = 2\nvalue = 18.8", fillcolor="#f7d8c2"] ;
377 -> 378 ;
379 [label="RM <= 5.843\nsquared_error = 0.0\nsamples = 2\nvalue = 19.5", fillcolor="#f7d6bf"] ;
377 -> 379 ;
380 [label="squared_error = 0.0\nsamples = 1\nvalue = 19.5", fillcolor="#f7d6bf"] ;
379 -> 380 ;
381 [label="squared_error = 0.0\nsamples = 1\nvalue = 19.5", fillcolor="#f7d6bf"] ;
379 -> 381 ;
382 [label="RM <= 5.748\nsquared_error = 0.16\nsamples = 2\nvalue = 17.9", fillcolor="#f8dbc6"] ;
374 -> 382 ;
383 [label="squared_error = 0.0\nsamples = 1\nvalue = 17.5", fillcolor="#f8dcc8"] ;
382 -> 383 ;
384 [label="squared_error = 0.0\nsamples = 1\nvalue = 18.3", fillcolor="#f7dac4"] ;
382 -> 384 ;
385 [label="CRIM <= 0.131\nsquared_error = 0.202\nsamples = 2\nvalue = 20.95", fillcolor="#f6d2b9"] ;
373 -> 385 ;
386 [label="squared_error = 0.0\nsamples = 1\nvalue = 20.5", fillcolor="#f6d4bb"] ;
385 -> 386 ;
387 [label="squared_error = 0.0\nsamples = 1\nvalue = 21.4", fillcolor="#f6d1b7"] ;
385 -> 387 ;
388 [label="DIS <= 3.842\nsquared_error = 1.962\nsamples = 8\nvalue = 21.537", fillcolor="#f5d1b6"] ;
372 -> 388 ;
389 [label="TAX <= 286.5\nsquared_error = 0.109\nsamples = 3\nvalue = 22.867", fillcolor="#f5cdb0"] ;
388 -> 389 ;
390 [label="squared_error = 0.0\nsamples = 1\nvalue = 22.4", fillcolor="#f5ceb2"] ;
389 -> 390 ;
391 [label="RM <= 5.621\nsquared_error = 0.0\nsamples = 2\nvalue = 23.1", fillcolor="#f5ccaf"] ;
389 -> 391 ;
392 [label="squared_error = 0.0\nsamples = 1\nvalue = 23.1", fillcolor="#f5ccaf"] ;
391 -> 392 ;
393 [label="squared_error = 0.0\nsamples = 1\nvalue = 23.1", fillcolor="#f5ccaf"] ;
391 -> 393 ;
394 [label="B <= 393.7\nsquared_error = 1.378\nsamples = 5\nvalue = 20.74", fillcolor="#f6d3ba"] ;
388 -> 394 ;
395 [label="DIS <= 4.903\nsquared_error = 0.16\nsamples = 2\nvalue = 22.1", fillcolor="#f5cfb4"] ;
394 -> 395 ;
396 [label="squared_error = 0.0\nsamples = 1\nvalue = 22.5", fillcolor="#f5ceb2"] ;
395 -> 396 ;
397 [label="squared_error = -0.0\nsamples = 1\nvalue = 21.7", fillcolor="#f5d0b6"] ;
395 -> 397 ;
398 [label="PTRATIO <= 16.95\nsquared_error = 0.136\nsamples = 3\nvalue = 19.833", fillcolor="#f6d5be"] ;
394 -> 398 ;
399 [label="squared_error = 0.0\nsamples = 1\nvalue = 20.3", fillcolor="#f6d4bc"] ;
398 -> 399 ;
400 [label="RM <= 5.692\nsquared_error = 0.04\nsamples = 2\nvalue = 19.6", fillcolor="#f7d6bf"] ;
398 -> 400 ;
401 [label="squared_error = 0.0\nsamples = 1\nvalue = 19.4", fillcolor="#f7d7c0"] ;
400 -> 401 ;
402 [label="squared_error = -0.0\nsamples = 1\nvalue = 19.8", fillcolor="#f6d6be"] ;
400 -> 402 ;
403 [label="RAD <= 7.5\nsquared_error = 1.462\nsamples = 4\nvalue = 18.075", fillcolor="#f7dac5"] ;
371 -> 403 ;
404 [label="RM <= 5.747\nsquared_error = 0.036\nsamples = 3\nvalue = 18.767", fillcolor="#f7d8c2"] ;
403 -> 404 ;
405 [label="squared_error = 0.0\nsamples = 1\nvalue = 18.5", fillcolor="#f7d9c4"] ;
404 -> 405 ;
406 [label="squared_error = 0.0\nsamples = 2\nvalue = 18.9", fillcolor="#f7d8c2"] ;
404 -> 406 ;
407 [label="squared_error = 0.0\nsamples = 1\nvalue = 16.0", fillcolor="#f9e0cf"] ;
403 -> 407 ;
408 [label="NOX <= 0.552\nsquared_error = 0.127\nsamples = 3\nvalue = 16.8", fillcolor="#f8decb"] ;
370 -> 408 ;
409 [label="INDUS <= 7.39\nsquared_error = 0.003\nsamples = 2\nvalue = 16.55", fillcolor="#f8dfcc"] ;
408 -> 409 ;
410 [label="squared_error = 0.0\nsamples = 1\nvalue = 16.6", fillcolor="#f8dfcc"] ;
409 -> 410 ;
411 [label="squared_error = 0.0\nsamples = 1\nvalue = 16.5", fillcolor="#f8dfcc"] ;
409 -> 411 ;
412 [label="squared_error = -0.0\nsamples = 1\nvalue = 17.3", fillcolor="#f8ddc9"] ;
408 -> 412 ;
413 [label="CHAS <= 0.5\nsquared_error = 1.822\nsamples = 2\nvalue = 25.75", fillcolor="#f3c5a4"] ;
369 -> 413 ;
414 [label="squared_error = 0.0\nsamples = 1\nvalue = 27.1", fillcolor="#f2c19e"] ;
413 -> 414 ;
415 [label="squared_error = 0.0\nsamples = 1\nvalue = 24.4", fillcolor="#f4c9aa"] ;
413 -> 415 ;
416 [label="RM <= 6.843\nsquared_error = 11.2\nsamples = 25\nvalue = 16.668", fillcolor="#f8decc"] ;
368 -> 416 ;
417 [label="B <= 310.51\nsquared_error = 6.574\nsamples = 24\nvalue = 16.217", fillcolor="#f9e0ce"] ;
416 -> 417 ;
418 [label="NOX <= 0.59\nsquared_error = 2.627\nsamples = 9\nvalue = 14.244", fillcolor="#fae5d6"] ;
417 -> 418 ;
419 [label="RM <= 5.582\nsquared_error = 0.797\nsamples = 7\nvalue = 13.5", fillcolor="#fae7da"] ;
418 -> 419 ;
420 [label="squared_error = 0.0\nsamples = 1\nvalue = 11.7", fillcolor="#fbece2"] ;
419 -> 420 ;
421 [label="LSTAT <= 20.015\nsquared_error = 0.3\nsamples = 6\nvalue = 13.8", fillcolor="#fae6d8"] ;
419 -> 421 ;
422 [label="B <= 304.9\nsquared_error = 0.149\nsamples = 3\nvalue = 14.267", fillcolor="#fae5d6"] ;
421 -> 422 ;
423 [label="TAX <= 486.5\nsquared_error = 0.01\nsamples = 2\nvalue = 14.0", fillcolor="#fae6d7"] ;
422 -> 423 ;
424 [label="squared_error = 0.0\nsamples = 1\nvalue = 13.9", fillcolor="#fae6d8"] ;
423 -> 424 ;
425 [label="squared_error = -0.0\nsamples = 1\nvalue = 14.1", fillcolor="#fae6d7"] ;
423 -> 425 ;
426 [label="squared_error = -0.0\nsamples = 1\nvalue = 14.8", fillcolor="#f9e4d4"] ;
422 -> 426 ;
427 [label="LSTAT <= 22.22\nsquared_error = 0.016\nsamples = 3\nvalue = 13.333", fillcolor="#fae8da"] ;
421 -> 427 ;
428 [label="squared_error = 0.0\nsamples = 1\nvalue = 13.5", fillcolor="#fae7da"] ;
427 -> 428 ;
429 [label="RAD <= 14.0\nsquared_error = 0.002\nsamples = 2\nvalue = 13.25", fillcolor="#fae8db"] ;
427 -> 429 ;
430 [label="squared_error = 0.0\nsamples = 1\nvalue = 13.2", fillcolor="#fae8db"] ;
429 -> 430 ;
431 [label="squared_error = 0.0\nsamples = 1\nvalue = 13.3", fillcolor="#fae8da"] ;
429 -> 431 ;
432 [label="TAX <= 534.5\nsquared_error = 0.302\nsamples = 2\nvalue = 16.85", fillcolor="#f8decb"] ;
418 -> 432 ;
433 [label="squared_error = 0.0\nsamples = 1\nvalue = 17.4", fillcolor="#f8dcc8"] ;
432 -> 433 ;
434 [label="squared_error = -0.0\nsamples = 1\nvalue = 16.3", fillcolor="#f8dfcd"] ;
432 -> 434 ;
435 [label="INDUS <= 8.35\nsquared_error = 5.208\nsamples = 15\nvalue = 17.4", fillcolor="#f8dcc8"] ;
417 -> 435 ;
436 [label="AGE <= 86.7\nsquared_error = 2.091\nsamples = 6\nvalue = 14.983", fillcolor="#f9e3d3"] ;
435 -> 436 ;
437 [label="squared_error = 0.0\nsamples = 1\nvalue = 17.5", fillcolor="#f8dcc8"] ;
436 -> 437 ;
438 [label="B <= 377.25\nsquared_error = 0.99\nsamples = 5\nvalue = 14.48", fillcolor="#fae4d5"] ;
436 -> 438 ;
439 [label="squared_error = 0.0\nsamples = 1\nvalue = 12.7", fillcolor="#fbe9dd"] ;
438 -> 439 ;
440 [label="LSTAT <= 19.3\nsquared_error = 0.247\nsamples = 4\nvalue = 14.925", fillcolor="#f9e3d3"] ;
438 -> 440 ;
441 [label="RM <= 6.033\nsquared_error = 0.04\nsamples = 2\nvalue = 15.4", fillcolor="#f9e2d1"] ;
440 -> 441 ;
442 [label="squared_error = 0.0\nsamples = 1\nvalue = 15.6", fillcolor="#f9e1d0"] ;
441 -> 442 ;
443 [label="squared_error = 0.0\nsamples = 1\nvalue = 15.2", fillcolor="#f9e2d2"] ;
441 -> 443 ;
444 [label="RAD <= 3.5\nsquared_error = 0.003\nsamples = 2\nvalue = 14.45", fillcolor="#fae5d5"] ;
440 -> 444 ;
445 [label="squared_error = 0.0\nsamples = 1\nvalue = 14.4", fillcolor="#fae5d6"] ;
444 -> 445 ;
446 [label="squared_error = 0.0\nsamples = 1\nvalue = 14.5", fillcolor="#fae4d5"] ;
444 -> 446 ;
447 [label="B <= 322.965\nsquared_error = 0.797\nsamples = 9\nvalue = 19.011", fillcolor="#f7d8c1"] ;
435 -> 447 ;
448 [label="squared_error = 0.0\nsamples = 1\nvalue = 17.2", fillcolor="#f8ddc9"] ;
447 -> 448 ;
449 [label="DIS <= 3.937\nsquared_error = 0.435\nsamples = 8\nvalue = 19.238", fillcolor="#f7d7c0"] ;
447 -> 449 ;
450 [label="B <= 396.07\nsquared_error = 0.16\nsamples = 7\nvalue = 19.443", fillcolor="#f7d7bf"] ;
449 -> 450 ;
451 [label="TAX <= 525.0\nsquared_error = 0.016\nsamples = 5\nvalue = 19.2", fillcolor="#f7d7c1"] ;
450 -> 451 ;
452 [label="LSTAT <= 19.765\nsquared_error = 0.002\nsamples = 2\nvalue = 19.35", fillcolor="#f7d7c0"] ;
451 -> 452 ;
453 [label="squared_error = 0.0\nsamples = 1\nvalue = 19.4", fillcolor="#f7d7c0"] ;
452 -> 453 ;
454 [label="squared_error = -0.0\nsamples = 1\nvalue = 19.3", fillcolor="#f7d7c0"] ;
452 -> 454 ;
455 [label="squared_error = 0.0\nsamples = 3\nvalue = 19.1", fillcolor="#f7d8c1"] ;
451 -> 455 ;
456 [label="RAD <= 14.0\nsquared_error = 0.003\nsamples = 2\nvalue = 20.05", fillcolor="#f6d5bd"] ;
450 -> 456 ;
457 [label="squared_error = 0.0\nsamples = 1\nvalue = 20.0", fillcolor="#f6d5bd"] ;
456 -> 457 ;
458 [label="squared_error = -0.0\nsamples = 1\nvalue = 20.1", fillcolor="#f6d5bd"] ;
456 -> 458 ;
459 [label="squared_error = 0.0\nsamples = 1\nvalue = 17.8", fillcolor="#f8dbc7"] ;
449 -> 459 ;
460 [label="squared_error = -0.0\nsamples = 1\nvalue = 27.5", fillcolor="#f2c09c"] ;
416 -> 460 ;
461 [label="CRIM <= 11.343\nsquared_error = 13.097\nsamples = 77\nvalue = 12.99", fillcolor="#fae9dc"] ;
367 -> 461 ;
462 [label="LSTAT <= 18.93\nsquared_error = 7.056\nsamples = 54\nvalue = 14.643", fillcolor="#f9e4d5"] ;
461 -> 462 ;
463 [label="CRIM <= 6.882\nsquared_error = 3.983\nsamples = 32\nvalue = 15.841", fillcolor="#f9e1cf"] ;
462 -> 463 ;
464 [label="DIS <= 2.453\nsquared_error = 3.855\nsamples = 19\nvalue = 16.642", fillcolor="#f8decc"] ;
463 -> 464 ;
465 [label="B <= 181.07\nsquared_error = 3.157\nsamples = 15\nvalue = 16.073", fillcolor="#f9e0ce"] ;
464 -> 465 ;
466 [label="RM <= 5.854\nsquared_error = 0.276\nsamples = 3\nvalue = 13.833", fillcolor="#fae6d8"] ;
465 -> 466 ;
467 [label="squared_error = 0.0\nsamples = 1\nvalue = 13.1", fillcolor="#fae8db"] ;
466 -> 467 ;
468 [label="AGE <= 87.2\nsquared_error = 0.01\nsamples = 2\nvalue = 14.2", fillcolor="#fae5d7"] ;
466 -> 468 ;
469 [label="squared_error = 0.0\nsamples = 1\nvalue = 14.1", fillcolor="#fae6d7"] ;
468 -> 469 ;
470 [label="squared_error = 0.0\nsamples = 1\nvalue = 14.3", fillcolor="#fae5d6"] ;
468 -> 470 ;
471 [label="LSTAT <= 17.045\nsquared_error = 2.309\nsamples = 12\nvalue = 16.633", fillcolor="#f8decc"] ;
465 -> 471 ;
472 [label="AGE <= 98.45\nsquared_error = 0.914\nsamples = 5\nvalue = 17.82", fillcolor="#f8dbc7"] ;
471 -> 472 ;
473 [label="LSTAT <= 15.77\nsquared_error = 0.06\nsamples = 3\nvalue = 17.1", fillcolor="#f8ddca"] ;
472 -> 473 ;
474 [label="B <= 373.56\nsquared_error = 0.022\nsamples = 2\nvalue = 16.95", fillcolor="#f8deca"] ;
473 -> 474 ;
475 [label="squared_error = 0.0\nsamples = 1\nvalue = 16.8", fillcolor="#f8decb"] ;
474 -> 475 ;
476 [label="squared_error = -0.0\nsamples = 1\nvalue = 17.1", fillcolor="#f8ddca"] ;
474 -> 476 ;
477 [label="squared_error = 0.0\nsamples = 1\nvalue = 17.4", fillcolor="#f8dcc8"] ;
473 -> 477 ;
478 [label="LSTAT <= 16.19\nsquared_error = 0.25\nsamples = 2\nvalue = 18.9", fillcolor="#f7d8c2"] ;
472 -> 478 ;
479 [label="squared_error = 0.0\nsamples = 1\nvalue = 19.4", fillcolor="#f7d7c0"] ;
478 -> 479 ;
480 [label="squared_error = -0.0\nsamples = 1\nvalue = 18.4", fillcolor="#f7d9c4"] ;
478 -> 480 ;
481 [label="B <= 391.11\nsquared_error = 1.581\nsamples = 7\nvalue = 15.786", fillcolor="#f9e1d0"] ;
471 -> 481 ;
482 [label="INDUS <= 22.92\nsquared_error = 0.803\nsamples = 4\nvalue = 14.95", fillcolor="#f9e3d3"] ;
481 -> 482 ;
483 [label="LSTAT <= 17.5\nsquared_error = 0.26\nsamples = 3\nvalue = 15.4", fillcolor="#f9e2d1"] ;
482 -> 483 ;
484 [label="squared_error = 0.0\nsamples = 1\nvalue = 16.1", fillcolor="#f9e0ce"] ;
483 -> 484 ;
485 [label="CRIM <= 5.865\nsquared_error = 0.022\nsamples = 2\nvalue = 15.05", fillcolor="#f9e3d3"] ;
483 -> 485 ;
486 [label="squared_error = 0.0\nsamples = 1\nvalue = 15.2", fillcolor="#f9e2d2"] ;
485 -> 486 ;
487 [label="squared_error = -0.0\nsamples = 1\nvalue = 14.9", fillcolor="#f9e3d3"] ;
485 -> 487 ;
488 [label="squared_error = 0.0\nsamples = 1\nvalue = 13.6", fillcolor="#fae7d9"] ;
482 -> 488 ;
489 [label="DIS <= 1.729\nsquared_error = 0.447\nsamples = 3\nvalue = 16.9", fillcolor="#f8decb"] ;
481 -> 489 ;
490 [label="squared_error = 0.0\nsamples = 1\nvalue = 17.8", fillcolor="#f8dbc7"] ;
489 -> 490 ;
491 [label="CRIM <= 2.565\nsquared_error = 0.062\nsamples = 2\nvalue = 16.45", fillcolor="#f8dfcd"] ;
489 -> 491 ;
492 [label="squared_error = 0.0\nsamples = 1\nvalue = 16.2", fillcolor="#f9e0ce"] ;
491 -> 492 ;
493 [label="squared_error = -0.0\nsamples = 1\nvalue = 16.7", fillcolor="#f8decc"] ;
491 -> 493 ;
494 [label="DIS <= 2.642\nsquared_error = 0.712\nsamples = 4\nvalue = 18.775", fillcolor="#f7d8c2"] ;
464 -> 494 ;
495 [label="PTRATIO <= 20.7\nsquared_error = 0.123\nsamples = 2\nvalue = 18.05", fillcolor="#f7dac6"] ;
494 -> 495 ;
496 [label="squared_error = 0.0\nsamples = 1\nvalue = 17.7", fillcolor="#f8dbc7"] ;
495 -> 496 ;
497 [label="squared_error = 0.0\nsamples = 1\nvalue = 18.4", fillcolor="#f7d9c4"] ;
495 -> 497 ;
498 [label="CRIM <= 5.288\nsquared_error = 0.25\nsamples = 2\nvalue = 19.5", fillcolor="#f7d6bf"] ;
494 -> 498 ;
499 [label="squared_error = 0.0\nsamples = 1\nvalue = 19.0", fillcolor="#f7d8c1"] ;
498 -> 499 ;
500 [label="squared_error = 0.0\nsamples = 1\nvalue = 20.0", fillcolor="#f6d5bd"] ;
498 -> 500 ;
501 [label="NOX <= 0.755\nsquared_error = 1.859\nsamples = 13\nvalue = 14.669", fillcolor="#f9e4d4"] ;
463 -> 501 ;
502 [label="AGE <= 99.4\nsquared_error = 1.129\nsamples = 12\nvalue = 14.408", fillcolor="#fae5d6"] ;
501 -> 502 ;
503 [label="NOX <= 0.729\nsquared_error = 0.624\nsamples = 10\nvalue = 14.08", fillcolor="#fae6d7"] ;
502 -> 503 ;
504 [label="DIS <= 1.833\nsquared_error = 0.422\nsamples = 9\nvalue = 14.244", fillcolor="#fae5d6"] ;
503 -> 504 ;
505 [label="B <= 394.44\nsquared_error = 0.123\nsamples = 2\nvalue = 13.45", fillcolor="#fae7da"] ;
504 -> 505 ;
506 [label="squared_error = 0.0\nsamples = 1\nvalue = 13.1", fillcolor="#fae8db"] ;
505 -> 506 ;
507 [label="squared_error = 0.0\nsamples = 1\nvalue = 13.8", fillcolor="#fae6d8"] ;
505 -> 507 ;
508 [label="B <= 5.09\nsquared_error = 0.276\nsamples = 7\nvalue = 14.471", fillcolor="#fae4d5"] ;
504 -> 508 ;
509 [label="squared_error = 0.0\nsamples = 1\nvalue = 13.5", fillcolor="#fae7da"] ;
508 -> 509 ;
510 [label="B <= 395.665\nsquared_error = 0.139\nsamples = 6\nvalue = 14.633", fillcolor="#f9e4d5"] ;
508 -> 510 ;
511 [label="NOX <= 0.715\nsquared_error = 0.098\nsamples = 5\nvalue = 14.74", fillcolor="#f9e4d4"] ;
510 -> 511 ;
512 [label="CRIM <= 9.873\nsquared_error = 0.032\nsamples = 4\nvalue = 14.875", fillcolor="#f9e3d4"] ;
511 -> 512 ;
513 [label="B <= 333.32\nsquared_error = 0.009\nsamples = 3\nvalue = 14.967", fillcolor="#f9e3d3"] ;
512 -> 513 ;
514 [label="AGE <= 88.9\nsquared_error = 0.0\nsamples = 2\nvalue = 14.9", fillcolor="#f9e3d3"] ;
513 -> 514 ;
515 [label="squared_error = 0.0\nsamples = 1\nvalue = 14.9", fillcolor="#f9e3d3"] ;
514 -> 515 ;
516 [label="squared_error = 0.0\nsamples = 1\nvalue = 14.9", fillcolor="#f9e3d3"] ;
514 -> 516 ;
517 [label="squared_error = -0.0\nsamples = 1\nvalue = 15.1", fillcolor="#f9e3d3"] ;
513 -> 517 ;
518 [label="squared_error = -0.0\nsamples = 1\nvalue = 14.6", fillcolor="#f9e4d5"] ;
512 -> 518 ;
519 [label="squared_error = -0.0\nsamples = 1\nvalue = 14.2", fillcolor="#fae5d7"] ;
511 -> 519 ;
520 [label="squared_error = 0.0\nsamples = 1\nvalue = 14.1", fillcolor="#fae6d7"] ;
510 -> 520 ;
521 [label="squared_error = -0.0\nsamples = 1\nvalue = 12.6", fillcolor="#fbeade"] ;
503 -> 521 ;
522 [label="CRIM <= 10.527\nsquared_error = 0.422\nsamples = 2\nvalue = 16.05", fillcolor="#f9e0ce"] ;
502 -> 522 ;
523 [label="squared_error = 0.0\nsamples = 1\nvalue = 15.4", fillcolor="#f9e2d1"] ;
522 -> 523 ;
524 [label="squared_error = -0.0\nsamples = 1\nvalue = 16.7", fillcolor="#f8decc"] ;
522 -> 524 ;
525 [label="squared_error = 0.0\nsamples = 1\nvalue = 17.8", fillcolor="#f8dbc7"] ;
501 -> 525 ;
526 [label="CRIM <= 0.229\nsquared_error = 6.401\nsamples = 22\nvalue = 12.9", fillcolor="#fae9dc"] ;
462 -> 526 ;
527 [label="LSTAT <= 26.825\nsquared_error = 0.303\nsamples = 2\nvalue = 7.55", fillcolor="#fef8f4"] ;
526 -> 527 ;
528 [label="squared_error = 0.0\nsamples = 1\nvalue = 7.0", fillcolor="#fef9f6"] ;
527 -> 528 ;
529 [label="squared_error = 0.0\nsamples = 1\nvalue = 8.1", fillcolor="#fdf6f1"] ;
527 -> 529 ;
530 [label="NOX <= 0.727\nsquared_error = 3.862\nsamples = 20\nvalue = 13.435", fillcolor="#fae7da"] ;
526 -> 530 ;
531 [label="NOX <= 0.675\nsquared_error = 2.343\nsamples = 12\nvalue = 12.65", fillcolor="#fbeadd"] ;
530 -> 531 ;
532 [label="LSTAT <= 23.725\nsquared_error = 0.167\nsamples = 6\nvalue = 13.7", fillcolor="#fae7d9"] ;
531 -> 532 ;
533 [label="LSTAT <= 22.305\nsquared_error = 0.002\nsamples = 3\nvalue = 13.333", fillcolor="#fae8da"] ;
532 -> 533 ;
534 [label="squared_error = 0.0\nsamples = 2\nvalue = 13.3", fillcolor="#fae8da"] ;
533 -> 534 ;
535 [label="squared_error = 0.0\nsamples = 1\nvalue = 13.4", fillcolor="#fae7da"] ;
533 -> 535 ;
536 [label="RM <= 4.963\nsquared_error = 0.062\nsamples = 3\nvalue = 14.067", fillcolor="#fae6d7"] ;
532 -> 536 ;
537 [label="squared_error = 0.0\nsamples = 1\nvalue = 13.8", fillcolor="#fae6d8"] ;
536 -> 537 ;
538 [label="RM <= 5.596\nsquared_error = 0.04\nsamples = 2\nvalue = 14.2", fillcolor="#fae5d7"] ;
536 -> 538 ;
539 [label="squared_error = 0.0\nsamples = 1\nvalue = 14.4", fillcolor="#fae5d6"] ;
538 -> 539 ;
540 [label="squared_error = 0.0\nsamples = 1\nvalue = 14.0", fillcolor="#fae6d7"] ;
538 -> 540 ;
541 [label="NOX <= 0.697\nsquared_error = 2.313\nsamples = 6\nvalue = 11.6", fillcolor="#fbede2"] ;
531 -> 541 ;
542 [label="RM <= 5.97\nsquared_error = 2.269\nsamples = 3\nvalue = 10.533", fillcolor="#fcf0e7"] ;
541 -> 542 ;
543 [label="squared_error = 0.0\nsamples = 1\nvalue = 8.5", fillcolor="#fdf5f0"] ;
542 -> 543 ;
544 [label="RM <= 6.298\nsquared_error = 0.302\nsamples = 2\nvalue = 11.55", fillcolor="#fbede2"] ;
542 -> 544 ;
545 [label="squared_error = 0.0\nsamples = 1\nvalue = 11.0", fillcolor="#fceee5"] ;
544 -> 545 ;
546 [label="squared_error = -0.0\nsamples = 1\nvalue = 12.1", fillcolor="#fbebe0"] ;
544 -> 546 ;
547 [label="DIS <= 1.859\nsquared_error = 0.082\nsamples = 3\nvalue = 12.667", fillcolor="#fbeadd"] ;
541 -> 547 ;
548 [label="squared_error = 0.0\nsamples = 1\nvalue = 12.3", fillcolor="#fbebdf"] ;
547 -> 548 ;
549 [label="RM <= 6.196\nsquared_error = 0.022\nsamples = 2\nvalue = 12.85", fillcolor="#fae9dc"] ;
547 -> 549 ;
550 [label="squared_error = 0.0\nsamples = 1\nvalue = 12.7", fillcolor="#fbe9dd"] ;
549 -> 550 ;
551 [label="squared_error = -0.0\nsamples = 1\nvalue = 13.0", fillcolor="#fae9dc"] ;
549 -> 551 ;
552 [label="B <= 388.835\nsquared_error = 3.831\nsamples = 8\nvalue = 14.612", fillcolor="#f9e4d5"] ;
530 -> 552 ;
553 [label="DIS <= 1.474\nsquared_error = 3.042\nsamples = 3\nvalue = 16.233", fillcolor="#f9e0ce"] ;
552 -> 553 ;
554 [label="squared_error = 0.0\nsamples = 1\nvalue = 13.8", fillcolor="#fae6d8"] ;
553 -> 554 ;
555 [label="DIS <= 1.797\nsquared_error = 0.122\nsamples = 2\nvalue = 17.45", fillcolor="#f8dcc8"] ;
553 -> 555 ;
556 [label="squared_error = 0.0\nsamples = 1\nvalue = 17.8", fillcolor="#f8dbc7"] ;
555 -> 556 ;
557 [label="squared_error = -0.0\nsamples = 1\nvalue = 17.1", fillcolor="#f8ddca"] ;
555 -> 557 ;
558 [label="RM <= 4.914\nsquared_error = 1.782\nsamples = 5\nvalue = 13.64", fillcolor="#fae7d9"] ;
552 -> 558 ;
559 [label="squared_error = 0.0\nsamples = 1\nvalue = 11.8", fillcolor="#fbece1"] ;
558 -> 559 ;
560 [label="AGE <= 94.8\nsquared_error = 1.17\nsamples = 4\nvalue = 14.1", fillcolor="#fae6d7"] ;
558 -> 560 ;
561 [label="squared_error = 0.0\nsamples = 1\nvalue = 12.8", fillcolor="#fae9dd"] ;
560 -> 561 ;
562 [label="DIS <= 1.367\nsquared_error = 0.809\nsamples = 3\nvalue = 14.533", fillcolor="#f9e4d5"] ;
560 -> 562 ;
563 [label="squared_error = 0.0\nsamples = 1\nvalue = 13.4", fillcolor="#fae7da"] ;
562 -> 563 ;
564 [label="DIS <= 1.436\nsquared_error = 0.25\nsamples = 2\nvalue = 15.1", fillcolor="#f9e3d3"] ;
562 -> 564 ;
565 [label="squared_error = 0.0\nsamples = 1\nvalue = 15.6", fillcolor="#f9e1d0"] ;
564 -> 565 ;
566 [label="squared_error = 0.0\nsamples = 1\nvalue = 14.6", fillcolor="#f9e4d5"] ;
564 -> 566 ;
567 [label="NOX <= 0.675\nsquared_error = 5.804\nsamples = 23\nvalue = 9.109", fillcolor="#fdf3ed"] ;
461 -> 567 ;
568 [label="CRIM <= 17.186\nsquared_error = 1.213\nsamples = 4\nvalue = 12.45", fillcolor="#fbeade"] ;
567 -> 568 ;
569 [label="B <= 373.19\nsquared_error = 0.303\nsamples = 2\nvalue = 11.45", fillcolor="#fbede3"] ;
568 -> 569 ;
570 [label="squared_error = 0.0\nsamples = 1\nvalue = 12.0", fillcolor="#fbebe0"] ;
569 -> 570 ;
571 [label="squared_error = 0.0\nsamples = 1\nvalue = 10.9", fillcolor="#fceee5"] ;
569 -> 571 ;
572 [label="AGE <= 98.1\nsquared_error = 0.123\nsamples = 2\nvalue = 13.45", fillcolor="#fae7da"] ;
568 -> 572 ;
573 [label="squared_error = 0.0\nsamples = 1\nvalue = 13.1", fillcolor="#fae8db"] ;
572 -> 573 ;
574 [label="squared_error = 0.0\nsamples = 1\nvalue = 13.8", fillcolor="#fae6d8"] ;
572 -> 574 ;
575 [label="DIS <= 1.589\nsquared_error = 3.926\nsamples = 19\nvalue = 8.405", fillcolor="#fdf5f0"] ;
567 -> 575 ;
576 [label="RM <= 4.826\nsquared_error = 3.182\nsamples = 7\nvalue = 6.843", fillcolor="#fefaf7"] ;
575 -> 576 ;
577 [label="squared_error = 0.0\nsamples = 1\nvalue = 10.5", fillcolor="#fcf0e7"] ;
576 -> 577 ;
578 [label="CRIM <= 23.822\nsquared_error = 1.112\nsamples = 6\nvalue = 6.233", fillcolor="#fefcfa"] ;
576 -> 578 ;
579 [label="RM <= 5.138\nsquared_error = 0.009\nsamples = 3\nvalue = 7.267", fillcolor="#fef9f5"] ;
578 -> 579 ;
580 [label="squared_error = 0.0\nsamples = 1\nvalue = 7.4", fillcolor="#fef8f4"] ;
579 -> 580 ;
581 [label="squared_error = -0.0\nsamples = 2\nvalue = 7.2", fillcolor="#fef9f5"] ;
579 -> 581 ;
582 [label="CRIM <= 31.699\nsquared_error = 0.08\nsamples = 3\nvalue = 5.2", fillcolor="#fffefe"] ;
578 -> 582 ;
583 [label="squared_error = 0.0\nsamples = 1\nvalue = 5.6", fillcolor="#fffdfc"] ;
582 -> 583 ;
584 [label="squared_error = 0.0\nsamples = 2\nvalue = 5.0", fillcolor="#ffffff"] ;
582 -> 584 ;
585 [label="LSTAT <= 17.47\nsquared_error = 2.105\nsamples = 12\nvalue = 9.317", fillcolor="#fdf3ec"] ;
575 -> 585 ;
586 [label="CRIM <= 25.788\nsquared_error = 0.16\nsamples = 2\nvalue = 11.3", fillcolor="#fbede3"] ;
585 -> 586 ;
587 [label="squared_error = 0.0\nsamples = 1\nvalue = 11.7", fillcolor="#fbece2"] ;
586 -> 587 ;
588 [label="squared_error = -0.0\nsamples = 1\nvalue = 10.9", fillcolor="#fceee5"] ;
586 -> 588 ;
589 [label="B <= 107.815\nsquared_error = 1.55\nsamples = 10\nvalue = 8.92", fillcolor="#fdf4ee"] ;
585 -> 589 ;
590 [label="NOX <= 0.706\nsquared_error = 0.542\nsamples = 4\nvalue = 7.825", fillcolor="#fdf7f3"] ;
589 -> 590 ;
591 [label="NOX <= 0.686\nsquared_error = 0.01\nsamples = 2\nvalue = 7.1", fillcolor="#fef9f6"] ;
590 -> 591 ;
592 [label="squared_error = 0.0\nsamples = 1\nvalue = 7.2", fillcolor="#fef9f5"] ;
591 -> 592 ;
593 [label="squared_error = 0.0\nsamples = 1\nvalue = 7.0", fillcolor="#fef9f6"] ;
591 -> 593 ;
594 [label="LSTAT <= 24.595\nsquared_error = 0.022\nsamples = 2\nvalue = 8.55", fillcolor="#fdf5ef"] ;
590 -> 594 ;
595 [label="squared_error = 0.0\nsamples = 1\nvalue = 8.4", fillcolor="#fdf5f0"] ;
594 -> 595 ;
596 [label="squared_error = -0.0\nsamples = 1\nvalue = 8.7", fillcolor="#fdf5ef"] ;
594 -> 596 ;
597 [label="B <= 284.99\nsquared_error = 0.889\nsamples = 6\nvalue = 9.65", fillcolor="#fcf2eb"] ;
589 -> 597 ;
598 [label="LSTAT <= 25.215\nsquared_error = 0.04\nsamples = 2\nvalue = 10.6", fillcolor="#fcefe6"] ;
597 -> 598 ;
599 [label="squared_error = 0.0\nsamples = 1\nvalue = 10.8", fillcolor="#fcefe5"] ;
598 -> 599 ;
600 [label="squared_error = -0.0\nsamples = 1\nvalue = 10.4", fillcolor="#fcf0e7"] ;
598 -> 600 ;
601 [label="NOX <= 0.697\nsquared_error = 0.637\nsamples = 4\nvalue = 9.175", fillcolor="#fdf3ed"] ;
597 -> 601 ;
602 [label="B <= 363.18\nsquared_error = 0.01\nsamples = 2\nvalue = 8.4", fillcolor="#fdf5f0"] ;
601 -> 602 ;
603 [label="squared_error = 0.0\nsamples = 1\nvalue = 8.5", fillcolor="#fdf5f0"] ;
602 -> 603 ;
604 [label="squared_error = 0.0\nsamples = 1\nvalue = 8.3", fillcolor="#fdf6f0"] ;
602 -> 604 ;
605 [label="CRIM <= 12.956\nsquared_error = 0.062\nsamples = 2\nvalue = 9.95", fillcolor="#fcf1e9"] ;
601 -> 605 ;
606 [label="squared_error = 0.0\nsamples = 1\nvalue = 9.7", fillcolor="#fcf2ea"] ;
605 -> 606 ;
607 [label="squared_error = 0.0\nsamples = 1\nvalue = 10.2", fillcolor="#fcf0e8"] ;
605 -> 607 ;
608 [label="RM <= 7.437\nsquared_error = 80.636\nsamples = 59\nvalue = 37.297", fillcolor="#eca571"] ;
0 -> 608 [labeldistance=2.5, labelangle=-45, headlabel="False"] ;
609 [label="NOX <= 0.659\nsquared_error = 35.894\nsamples = 35\nvalue = 31.889", fillcolor="#efb489"] ;
608 -> 609 ;
610 [label="CRIM <= 6.135\nsquared_error = 22.53\nsamples = 33\nvalue = 32.827", fillcolor="#efb185"] ;
609 -> 610 ;
611 [label="NOX <= 0.488\nsquared_error = 13.73\nsamples = 32\nvalue = 32.291", fillcolor="#efb387"] ;
610 -> 611 ;
612 [label="AGE <= 12.65\nsquared_error = 5.309\nsamples = 19\nvalue = 34.174", fillcolor="#eead7f"] ;
611 -> 612 ;
613 [label="LSTAT <= 4.135\nsquared_error = 0.09\nsamples = 2\nvalue = 29.3", fillcolor="#f1bb94"] ;
612 -> 613 ;
614 [label="squared_error = 0.0\nsamples = 1\nvalue = 29.6", fillcolor="#f1ba93"] ;
613 -> 614 ;
615 [label="squared_error = 0.0\nsamples = 1\nvalue = 29.0", fillcolor="#f1bc95"] ;
613 -> 615 ;
616 [label="TAX <= 204.5\nsquared_error = 2.8\nsamples = 17\nvalue = 34.747", fillcolor="#eeac7c"] ;
612 -> 616 ;
617 [label="RM <= 7.068\nsquared_error = 0.123\nsamples = 2\nvalue = 37.55", fillcolor="#eca470"] ;
616 -> 617 ;
618 [label="squared_error = 0.0\nsamples = 1\nvalue = 37.2", fillcolor="#eca571"] ;
617 -> 618 ;
619 [label="squared_error = 0.0\nsamples = 1\nvalue = 37.9", fillcolor="#eca36e"] ;
617 -> 619 ;
620 [label="TAX <= 363.5\nsquared_error = 1.97\nsamples = 15\nvalue = 34.373", fillcolor="#eead7e"] ;
616 -> 620 ;
621 [label="TAX <= 253.0\nsquared_error = 1.366\nsamples = 11\nvalue = 33.855", fillcolor="#eeae80"] ;
620 -> 621 ;
622 [label="AGE <= 43.45\nsquared_error = 0.976\nsamples = 6\nvalue = 34.65", fillcolor="#eeac7d"] ;
621 -> 622 ;
623 [label="INDUS <= 2.565\nsquared_error = 0.242\nsamples = 3\nvalue = 35.467", fillcolor="#edaa79"] ;
622 -> 623 ;
624 [label="squared_error = 0.0\nsamples = 1\nvalue = 36.1", fillcolor="#eda876"] ;
623 -> 624 ;
625 [label="INDUS <= 3.14\nsquared_error = 0.062\nsamples = 2\nvalue = 35.15", fillcolor="#eeab7a"] ;
623 -> 625 ;
626 [label="squared_error = 0.0\nsamples = 1\nvalue = 34.9", fillcolor="#eeab7b"] ;
625 -> 626 ;
627 [label="squared_error = 0.0\nsamples = 1\nvalue = 35.4", fillcolor="#edaa79"] ;
625 -> 627 ;
628 [label="PTRATIO <= 18.1\nsquared_error = 0.376\nsamples = 3\nvalue = 33.833", fillcolor="#eeae80"] ;
622 -> 628 ;
629 [label="squared_error = 0.0\nsamples = 1\nvalue = 34.7", fillcolor="#eeac7c"] ;
628 -> 629 ;
630 [label="squared_error = 0.0\nsamples = 2\nvalue = 33.4", fillcolor="#efaf82"] ;
628 -> 630 ;
631 [label="CRIM <= 0.027\nsquared_error = 0.164\nsamples = 5\nvalue = 32.9", fillcolor="#efb184"] ;
621 -> 631 ;
632 [label="LSTAT <= 6.67\nsquared_error = 0.062\nsamples = 2\nvalue = 32.45", fillcolor="#efb286"] ;
631 -> 632 ;
633 [label="squared_error = 0.0\nsamples = 1\nvalue = 32.7", fillcolor="#efb185"] ;
632 -> 633 ;
634 [label="squared_error = -0.0\nsamples = 1\nvalue = 32.2", fillcolor="#efb387"] ;
632 -> 634 ;
635 [label="RM <= 7.125\nsquared_error = 0.007\nsamples = 3\nvalue = 33.2", fillcolor="#efb083"] ;
631 -> 635 ;
636 [label="squared_error = 0.0\nsamples = 1\nvalue = 33.1", fillcolor="#efb083"] ;
635 -> 636 ;
637 [label="B <= 393.075\nsquared_error = 0.003\nsamples = 2\nvalue = 33.25", fillcolor="#efb083"] ;
635 -> 637 ;
638 [label="squared_error = 0.0\nsamples = 1\nvalue = 33.2", fillcolor="#efb083"] ;
637 -> 638 ;
639 [label="squared_error = 0.0\nsamples = 1\nvalue = 33.3", fillcolor="#efb082"] ;
637 -> 639 ;
640 [label="CRIM <= 0.085\nsquared_error = 0.855\nsamples = 4\nvalue = 35.8", fillcolor="#eda977"] ;
620 -> 640 ;
641 [label="squared_error = 0.0\nsamples = 2\nvalue = 34.9", fillcolor="#eeab7b"] ;
640 -> 641 ;
642 [label="B <= 384.085\nsquared_error = 0.09\nsamples = 2\nvalue = 36.7", fillcolor="#eda674"] ;
640 -> 642 ;
643 [label="squared_error = 0.0\nsamples = 1\nvalue = 37.0", fillcolor="#eda572"] ;
642 -> 643 ;
644 [label="squared_error = -0.0\nsamples = 1\nvalue = 36.4", fillcolor="#eda775"] ;
642 -> 644 ;
645 [label="RM <= 7.121\nsquared_error = 13.281\nsamples = 13\nvalue = 29.538", fillcolor="#f1ba93"] ;
611 -> 645 ;
646 [label="LSTAT <= 10.685\nsquared_error = 7.09\nsamples = 7\nvalue = 26.914", fillcolor="#f2c29f"] ;
645 -> 646 ;
647 [label="AGE <= 70.05\nsquared_error = 3.614\nsamples = 5\nvalue = 25.58", fillcolor="#f3c5a4"] ;
646 -> 647 ;
648 [label="squared_error = 0.0\nsamples = 1\nvalue = 28.7", fillcolor="#f1bd97"] ;
647 -> 648 ;
649 [label="B <= 393.49\nsquared_error = 1.475\nsamples = 4\nvalue = 24.8", fillcolor="#f4c8a8"] ;
647 -> 649 ;
650 [label="squared_error = 0.0\nsamples = 1\nvalue = 26.7", fillcolor="#f2c2a0"] ;
649 -> 650 ;
651 [label="AGE <= 81.65\nsquared_error = 0.362\nsamples = 3\nvalue = 24.167", fillcolor="#f4c9ab"] ;
649 -> 651 ;
652 [label="squared_error = 0.0\nsamples = 1\nvalue = 25.0", fillcolor="#f3c7a7"] ;
651 -> 652 ;
653 [label="CRIM <= 0.059\nsquared_error = 0.023\nsamples = 2\nvalue = 23.75", fillcolor="#f4caac"] ;
651 -> 653 ;
654 [label="squared_error = 0.0\nsamples = 1\nvalue = 23.6", fillcolor="#f4cbad"] ;
653 -> 654 ;
655 [label="squared_error = 0.0\nsamples = 1\nvalue = 23.9", fillcolor="#f4caac"] ;
653 -> 655 ;
656 [label="ZN <= 10.0\nsquared_error = 0.203\nsamples = 2\nvalue = 30.25", fillcolor="#f0b890"] ;
646 -> 656 ;
657 [label="squared_error = 0.0\nsamples = 1\nvalue = 29.8", fillcolor="#f1ba92"] ;
656 -> 657 ;
658 [label="squared_error = 0.0\nsamples = 1\nvalue = 30.7", fillcolor="#f0b78e"] ;
656 -> 658 ;
659 [label="AGE <= 97.25\nsquared_error = 3.097\nsamples = 6\nvalue = 32.6", fillcolor="#efb286"] ;
645 -> 659 ;
660 [label="RM <= 7.265\nsquared_error = 0.942\nsamples = 5\nvalue = 31.92", fillcolor="#efb489"] ;
659 -> 660 ;
661 [label="NOX <= 0.576\nsquared_error = 1.21\nsamples = 2\nvalue = 32.7", fillcolor="#efb185"] ;
660 -> 661 ;
662 [label="squared_error = 0.0\nsamples = 1\nvalue = 31.6", fillcolor="#f0b58a"] ;
661 -> 662 ;
663 [label="squared_error = -0.0\nsamples = 1\nvalue = 33.8", fillcolor="#eeae80"] ;
661 -> 663 ;
664 [label="AGE <= 85.7\nsquared_error = 0.087\nsamples = 3\nvalue = 31.4", fillcolor="#f0b58b"] ;
660 -> 664 ;
665 [label="LSTAT <= 4.99\nsquared_error = 0.01\nsamples = 2\nvalue = 31.6", fillcolor="#f0b58a"] ;
664 -> 665 ;
666 [label="squared_error = 0.0\nsamples = 1\nvalue = 31.5", fillcolor="#f0b58a"] ;
665 -> 666 ;
667 [label="squared_error = -0.0\nsamples = 1\nvalue = 31.7", fillcolor="#f0b48a"] ;
665 -> 667 ;
668 [label="squared_error = 0.0\nsamples = 1\nvalue = 31.0", fillcolor="#f0b68d"] ;
664 -> 668 ;
669 [label="squared_error = 0.0\nsamples = 1\nvalue = 36.0", fillcolor="#eda877"] ;
659 -> 669 ;
670 [label="squared_error = 0.0\nsamples = 1\nvalue = 50.0", fillcolor="#e58139"] ;
610 -> 670 ;
671 [label="B <= 386.385\nsquared_error = 1.96\nsamples = 2\nvalue = 16.4", fillcolor="#f8dfcd"] ;
609 -> 671 ;
672 [label="squared_error = 0.0\nsamples = 1\nvalue = 17.8", fillcolor="#f8dbc7"] ;
671 -> 672 ;
673 [label="squared_error = 0.0\nsamples = 1\nvalue = 15.0", fillcolor="#f9e3d3"] ;
671 -> 673 ;
674 [label="RAD <= 16.0\nsquared_error = 41.033\nsamples = 24\nvalue = 45.183", fillcolor="#e88e4e"] ;
608 -> 674 ;
675 [label="PTRATIO <= 17.9\nsquared_error = 18.222\nsamples = 23\nvalue = 46.196", fillcolor="#e78c4a"] ;
674 -> 675 ;
676 [label="RM <= 7.783\nsquared_error = 10.327\nsamples = 20\nvalue = 47.29", fillcolor="#e78945"] ;
675 -> 676 ;
677 [label="B <= 381.925\nsquared_error = 8.896\nsamples = 7\nvalue = 44.729", fillcolor="#e89050"] ;
676 -> 677 ;
678 [label="AGE <= 70.25\nsquared_error = 3.042\nsamples = 3\nvalue = 47.567", fillcolor="#e68844"] ;
677 -> 678 ;
679 [label="CHAS <= 0.5\nsquared_error = 0.123\nsamples = 2\nvalue = 46.35", fillcolor="#e78b49"] ;
678 -> 679 ;
680 [label="squared_error = 0.0\nsamples = 1\nvalue = 46.7", fillcolor="#e78a48"] ;
679 -> 680 ;
681 [label="squared_error = 0.0\nsamples = 1\nvalue = 46.0", fillcolor="#e78c4b"] ;
679 -> 681 ;
682 [label="squared_error = 0.0\nsamples = 1\nvalue = 50.0", fillcolor="#e58139"] ;
678 -> 682 ;
683 [label="TAX <= 218.5\nsquared_error = 2.715\nsamples = 4\nvalue = 42.6", fillcolor="#e9965a"] ;
677 -> 683 ;
684 [label="squared_error = 0.0\nsamples = 1\nvalue = 39.8", fillcolor="#eb9e66"] ;
683 -> 684 ;
685 [label="ZN <= 55.0\nsquared_error = 0.136\nsamples = 3\nvalue = 43.533", fillcolor="#e99355"] ;
683 -> 685 ;
686 [label="B <= 389.335\nsquared_error = 0.04\nsamples = 2\nvalue = 43.3", fillcolor="#e99456"] ;
685 -> 686 ;
687 [label="squared_error = 0.0\nsamples = 1\nvalue = 43.1", fillcolor="#e99457"] ;
686 -> 687 ;
688 [label="squared_error = 0.0\nsamples = 1\nvalue = 43.5", fillcolor="#e99356"] ;
686 -> 688 ;
689 [label="squared_error = 0.0\nsamples = 1\nvalue = 44.0", fillcolor="#e89253"] ;
685 -> 689 ;
690 [label="RAD <= 6.5\nsquared_error = 5.662\nsamples = 13\nvalue = 48.669", fillcolor="#e6853f"] ;
676 -> 690 ;
691 [label="TAX <= 220.0\nsquared_error = 1.819\nsamples = 11\nvalue = 49.336", fillcolor="#e5833c"] ;
690 -> 691 ;
692 [label="LSTAT <= 4.105\nsquared_error = 5.29\nsamples = 2\nvalue = 47.7", fillcolor="#e68743"] ;
691 -> 692 ;
693 [label="squared_error = 0.0\nsamples = 1\nvalue = 45.4", fillcolor="#e88e4d"] ;
692 -> 693 ;
694 [label="squared_error = -0.0\nsamples = 1\nvalue = 50.0", fillcolor="#e58139"] ;
692 -> 694 ;
695 [label="LSTAT <= 3.755\nsquared_error = 0.32\nsamples = 9\nvalue = 49.7", fillcolor="#e5823a"] ;
691 -> 695 ;
696 [label="squared_error = 0.0\nsamples = 5\nvalue = 50.0", fillcolor="#e58139"] ;
695 -> 696 ;
697 [label="CRIM <= 0.549\nsquared_error = 0.467\nsamples = 4\nvalue = 49.325", fillcolor="#e5833c"] ;
695 -> 697 ;
698 [label="ZN <= 57.5\nsquared_error = 0.023\nsamples = 2\nvalue = 48.65", fillcolor="#e6853f"] ;
697 -> 698 ;
699 [label="squared_error = 0.0\nsamples = 1\nvalue = 48.8", fillcolor="#e6843e"] ;
698 -> 699 ;
700 [label="squared_error = 0.0\nsamples = 1\nvalue = 48.5", fillcolor="#e68540"] ;
698 -> 700 ;
701 [label="squared_error = -0.0\nsamples = 2\nvalue = 50.0", fillcolor="#e58139"] ;
697 -> 701 ;
702 [label="CRIM <= 0.453\nsquared_error = 10.89\nsamples = 2\nvalue = 45.0", fillcolor="#e88f4f"] ;
690 -> 702 ;
703 [label="squared_error = 0.0\nsamples = 1\nvalue = 48.3", fillcolor="#e68640"] ;
702 -> 703 ;
704 [label="squared_error = 0.0\nsamples = 1\nvalue = 41.7", fillcolor="#ea985e"] ;
702 -> 704 ;
705 [label="PTRATIO <= 18.85\nsquared_error = 9.647\nsamples = 3\nvalue = 38.9", fillcolor="#eba06a"] ;
675 -> 705 ;
706 [label="DIS <= 3.931\nsquared_error = 3.062\nsamples = 2\nvalue = 36.95", fillcolor="#eda672"] ;
705 -> 706 ;
707 [label="squared_error = 0.0\nsamples = 1\nvalue = 38.7", fillcolor="#eca16b"] ;
706 -> 707 ;
708 [label="squared_error = 0.0\nsamples = 1\nvalue = 35.2", fillcolor="#eeaa7a"] ;
706 -> 708 ;
709 [label="squared_error = -0.0\nsamples = 1\nvalue = 42.8", fillcolor="#e99559"] ;
705 -> 709 ;
710 [label="squared_error = 0.0\nsamples = 1\nvalue = 21.9", fillcolor="#f5d0b5"] ;
674 -> 710 ;
}